{"learner":{"attributes":{"best_iteration":"91","best_score":"5.693383577224644"},"feature_names":["max_torso_rotational_velo","max_rotation_hip_shoulder_separation","max_shoulder_external_rotation","lead_knee_extension_angular_velo_max","max_cog_velo_x","torso_rotation_min","glove_shoulder_external_rotation_fp","torso_anterior_tilt_mer","torso_lateral_tilt_mer","torso_anterior_tilt_br","torso_lateral_tilt_br","lead_knee_extension_from_fp_to_br","max_shoulder_horizontal_abduction","shoulder_absorption_fp_br","thorax_distal_transfer_fp_br"],"feature_types":[],"gradient_booster":{"model":{"gbtree_model_param":{"num_parallel_tree":"1","num_trees":"102"},"iteration_indptr":[0,1,2,3,4,5,6,7,8,9,10,11,12,13,14,15,16,17,18,19,20,21,22,23,24,25,26,27,28,29,30,31,32,33,34,35,36,37,38,39,40,41,42,43,44,45,46,47,48,49,50,51,52,53,54,55,56,57,58,59,60,61,62,63,64,65,66,67,68,69,70,71,72,73,74,75,76,77,78,79,80,81,82,83,84,85,86,87,88,89,90,91,92,93,94,95,96,97,98,99,100,101,102],"tree_info":[0,0,0,0,0,0,0,0,0,0,0,0,0,0,0,0,0,0,0,0,0,0,0,0,0,0,0,0,0,0,0,0,0,0,0,0,0,0,0,0,0,0,0,0,0,0,0,0,0,0,0,0,0,0,0,0,0,0,0,0,0,0,0,0,0,0,0,0,0,0,0,0,0,0,0,0,0,0,0,0,0,0,0,0,0,0,0,0,0,0,0,0,0,0,0,0,0,0,0,0,0,0],"trees":[{"base_weights":[3.714392E-1,5.3924303E0,-6.2418265E0,2.0507126E0,3.6455625E-1,-3.512704E-1,-1.8824781E-1,4.4326972E-2,1.2425213E-1],"categories":[],"categories_nodes":[],"categories_segments":[],"categories_sizes":[],"default_left":[0,0,0,0,0,0,0,0,0],"id":0,"left_children":[1,3,5,7,-1,-1,-1,-1,-1],"loss_changes":[1.229044E3,1.18290955E2,4.6029053E0,2.3476295E0,0E0,0E0,0E0,0E0,0E0],"parents":[2147483647,0,0,1,1,2,2,3,3],"right_children":[2,4,6,8,-1,-1,-1,-1,-1],"split_conditions":[1.4155746E-1,6.9017634E-2,1.1259259E-1,-2.8675136E-1,3.6455625E-1,-3.512704E-1,-1.8824781E-1,4.4326972E-2,1.2425213E-1],"split_indices":[14,1,2,0,0,0,0,0,0],"split_type":[0,0,0,0,0,0,0,0,0],"sum_hessian":[3.5E1,2E1,1.5E1,8E0,1.2E1,1E1,5E0,3E0,5E0],"tree_param":{"num_deleted":"0","num_feature":"15","num_nodes":"9","size_leaf_vector":"1"}},{"base_weights":[4.0080715E-2,5.188806E0,-6.3224673E0,1.966908E0,3.5101062E-1,-4.0928617E-1,-2.2809945E-1,4.2664718E-2,1.19074956E-1],"categories":[],"categories_nodes":[],"categories_segments":[],"categories_sizes":[],"default_left":[0,0,0,0,0,0,0,0,0],"id":1,"left_children":[1,3,5,7,-1,-1,-1,-1,-1],"loss_changes":[1.2448895E3,1.1010455E2,1.8420532E1,2.123127E0,0E0,0E0,0E0,0E0,0E0],"parents":[2147483647,0,0,1,1,2,2,3,3],"right_children":[2,4,6,8,-1,-1,-1,-1,-1],"split_conditions":[2.9674453E-1,6.9017634E-2,-1.0992593E0,-2.8675136E-1,3.5101062E-1,-4.0928617E-1,-2.2809945E-1,4.2664718E-2,1.19074956E-1],"split_indices":[14,1,2,0,0,0,0,0,0],"split_type":[0,0,0,0,0,0,0,0,0],"sum_hessian":[3.6E1,2E1,1.6E1,8E0,1.2E1,6E0,1E1,3E0,5E0],"tree_param":{"num_deleted":"0","num_feature":"15","num_nodes":"9","size_leaf_vector":"1"}},{"base_weights":[3.732128E-1,5.513106E0,-5.695674E0,1.9635762E0,3.4470388E-1,-3.0400586E-1,-1.4631014E-1,3.6502074E-2,1.1554909E-1],"categories":[],"categories_nodes":[],"categories_segments":[],"categories_sizes":[],"default_left":[0,0,0,0,0,0,0,0,0],"id":2,"left_children":[1,3,5,7,-1,-1,-1,-1,-1],"loss_changes":[1.1543643E3,8.44989E1,3.0841064E-1,1.312643E0,0E0,0E0,0E0,0E0,0E0],"parents":[2147483647,0,0,1,1,2,2,3,3],"right_children":[2,4,6,8,-1,-1,-1,-1,-1],"split_conditions":[2.9674453E-1,6.9017634E-2,5.241853E-1,-2.8675136E-1,3.4470388E-1,-3.0400586E-1,-1.4631014E-1,3.6502074E-2,1.1554909E-1],"split_indices":[14,1,3,0,0,0,0,0,0],"split_type":[0,0,0,0,0,0,0,0,0],"sum_hessian":[3.5E1,1.9E1,1.6E1,6E0,1.3E1,1.3E1,3E0,2E0,4E0],"tree_param":{"num_deleted":"0","num_feature":"15","num_nodes":"9","size_leaf_vector":"1"}},{"base_weights":[-3.3682662E-1,5.029515E0,-5.6854405E0,2.7110565E0,6.8450217E0,-3.787164E-1,-2.1155028E-1,3.9696123E-2,1.7096339E-1,9.307957E-2,3.5959464E-1],"categories":[],"categories_nodes":[],"categories_segments":[],"categories_sizes":[],"default_left":[0,0,0,0,0,0,0,0,0,0,0],"id":3,"left_children":[1,3,5,7,9,-1,-1,-1,-1,-1,-1],"loss_changes":[1.090587E3,6.1417114E1,2.0151001E1,1.0862717E1,3.8977356E0,0E0,0E0,0E0,0E0,0E0,0E0],"parents":[2147483647,0,0,1,1,2,2,3,3,4,4],"right_children":[2,4,6,8,10,-1,-1,-1,-1,-1,-1],"split_conditions":[2.9674453E-1,3.5712406E-1,-1.0992593E0,-2.8675136E-1,1.1005291E-1,-3.787164E-1,-2.1155028E-1,3.9696123E-2,1.7096339E-1,9.307957E-2,3.5959464E-1],"split_indices":[14,3,2,0,2,0,0,0,0,0,0],"split_type":[0,0,0,0,0,0,0,0,0,0,0],"sum_hessian":[3.6E1,1.8E1,1.8E1,9E0,9E0,6E0,1.2E1,3E0,6E0,1E0,8E0],"tree_param":{"num_deleted":"0","num_feature":"15","num_nodes":"11","size_leaf_vector":"1"}},{"base_weights":[-1.9078724E-1,4.6254816E0,-5.5315976E0,1.6896583E0,3.2209462E-1,-3.6248574E-1,-2.034198E-1,3.820753E-2,1.0125269E-1],"categories":[],"categories_nodes":[],"categories_segments":[],"categories_sizes":[],"default_left":[0,0,0,0,0,0,0,0,0],"id":4,"left_children":[1,3,5,7,-1,-1,-1,-1,-1],"loss_changes":[9.7732904E2,9.5768616E1,1.5756409E1,1.246254E0,0E0,0E0,0E0,0E0,0E0],"parents":[2147483647,0,0,1,1,2,2,3,3],"right_children":[2,4,6,8,-1,-1,-1,-1,-1],"split_conditions":[2.9674453E-1,6.9017634E-2,-1.0992593E0,-2.8675136E-1,3.2209462E-1,-3.6248574E-1,-2.034198E-1,3.820753E-2,1.0125269E-1],"split_indices":[14,1,2,0,0,0,0,0,0],"split_type":[0,0,0,0,0,0,0,0,0],"sum_hessian":[3.6E1,1.9E1,1.7E1,8E0,1.1E1,6E0,1.1E1,3E0,5E0],"tree_param":{"num_deleted":"0","num_feature":"15","num_nodes":"9","size_leaf_vector":"1"}},{"base_weights":[2.0492151E-2,4.364906E0,-5.049129E0,1.6206725E0,2.964499E-1,-5.6537E0,-1.448852E-1,3.6774732E-2,9.703395E-2,-3.0919647E-1,-1.4573507E-1],"categories":[],"categories_nodes":[],"categories_segments":[],"categories_sizes":[],"default_left":[0,0,0,0,0,0,0,0,0,0,0],"id":5,"left_children":[1,3,5,7,-1,9,-1,-1,-1,-1,-1],"loss_changes":[8.5897125E2,8.0527954E1,7.029663E0,1.1220016E0,0E0,8.555908E-1,0E0,0E0,0E0,0E0,0E0],"parents":[2147483647,0,0,1,1,2,2,3,3,5,5],"right_children":[2,4,6,8,-1,10,-1,-1,-1,-1,-1],"split_conditions":[2.9674453E-1,6.9017634E-2,1.0169491E-1,-2.8675136E-1,2.964499E-1,1.6139507E0,-1.448852E-1,3.6774732E-2,9.703395E-2,-3.0919647E-1,-1.4573507E-1],"split_indices":[14,1,4,0,0,6,0,0,0,0,0],"split_type":[0,0,0,0,0,0,0,0,0,0,0],"sum_hessian":[3.7E1,2E1,1.7E1,8E0,1.2E1,1.2E1,5E0,3E0,5E0,9E0,3E0],"tree_param":{"num_deleted":"0","num_feature":"15","num_nodes":"11","size_leaf_vector":"1"}},{"base_weights":[-2.6807383E-1,4.053295E0,-5.08207E0,5.71773E-2,2.6541457E-1,-5.811115E0,-1.3884844E-1,-8.184662E-2,-3.020887E-1],"categories":[],"categories_nodes":[],"categories_segments":[],"categories_sizes":[],"default_left":[0,0,0,0,0,0,0,0,0],"id":6,"left_children":[1,3,5,-1,-1,7,-1,-1,-1],"loss_changes":[7.48706E2,6.331244E1,1.243158E1,0E0,0E0,1.6637878E0,0E0,0E0,0E0],"parents":[2147483647,0,0,1,1,2,2,5,5],"right_children":[2,4,6,-1,-1,8,-1,-1,-1],"split_conditions":[2.9674453E-1,-3.627204E-2,1.0169491E-1,5.71773E-2,2.6541457E-1,-9.1944146E-1,-1.3884844E-1,-8.184662E-2,-3.020887E-1],"split_indices":[14,1,4,0,0,0,0,0,0],"split_type":[0,0,0,0,0,0,0,0,0],"sum_hessian":[3.4E1,1.8E1,1.6E1,6E0,1.2E1,1.1E1,5E0,1E0,1E1],"tree_param":{"num_deleted":"0","num_feature":"15","num_nodes":"9","size_leaf_vector":"1"}},{"base_weights":[-1.0459137E-1,4.0887017E0,-4.733779E0,1.4574119E0,2.7979243E-1,-5.2838736E0,-1.3306312E-1,3.325167E-2,8.713811E-2,-2.8835753E-1,-1.316947E-1],"categories":[],"categories_nodes":[],"categories_segments":[],"categories_sizes":[],"default_left":[0,0,0,0,0,0,0,0,0,0,0],"id":7,"left_children":[1,3,5,7,-1,9,-1,-1,-1,-1,-1],"loss_changes":[7.7640515E2,7.512512E1,7.5997314E0,8.759537E-1,0E0,2.73938E0,0E0,0E0,0E0,0E0,0E0],"parents":[2147483647,0,0,1,1,2,2,3,3,5,5],"right_children":[2,4,6,8,-1,10,-1,-1,-1,-1,-1],"split_conditions":[2.9674453E-1,6.9017634E-2,1.0169491E-1,-2.8675136E-1,2.7979243E-1,1.6139507E0,-1.3306312E-1,3.325167E-2,8.713811E-2,-2.8835753E-1,-1.316947E-1],"split_indices":[14,1,4,0,0,6,0,0,0,0,0],"split_type":[0,0,0,0,0,0,0,0,0,0,0],"sum_hessian":[3.8E1,2E1,1.8E1,8E0,1.2E1,1.3E1,5E0,3E0,5E0,1E1,3E0],"tree_param":{"num_deleted":"0","num_feature":"15","num_nodes":"11","size_leaf_vector":"1"}},{"base_weights":[-3.6082053E-1,-4.653648E0,3.713562E0,-5.159661E0,-1.2036423E-1,5.5324364E-2,2.3155844E-1,-2.8467545E-1,-1.267563E-1],"categories":[],"categories_nodes":[],"categories_segments":[],"categories_sizes":[],"default_left":[0,0,0,0,0,0,0,0,0],"id":8,"left_children":[1,3,5,7,-1,-1,-1,-1,-1],"loss_changes":[6.119627E2,6.9029846E0,3.7936523E1,3.7805786E0,0E0,0E0,0E0,0E0,0E0],"parents":[2147483647,0,0,1,1,2,2,3,3],"right_children":[2,4,6,8,-1,-1,-1,-1,-1],"split_conditions":[2.151111E-1,1.0169491E-1,5.5415615E-2,1.6139507E0,-1.2036423E-1,5.5324364E-2,2.3155844E-1,-2.8467545E-1,-1.267563E-1],"split_indices":[7,4,1,6,0,0,0,0,0],"split_type":[0,0,0,0,0,0,0,0,0],"sum_hessian":[3.3E1,1.6E1,1.7E1,1.2E1,4E0,5E0,1.2E1,9E0,3E0],"tree_param":{"num_deleted":"0","num_feature":"15","num_nodes":"9","size_leaf_vector":"1"}},{"base_weights":[2.2018123E-1,3.840597E0,-4.265049E0,5.9092235E-2,2.542778E-1,-2.9949418E-1,-1.5236054E-1],"categories":[],"categories_nodes":[],"categories_segments":[],"categories_sizes":[],"default_left":[0,0,0,0,0,0,0],"id":9,"left_children":[1,3,5,-1,-1,-1,-1],"loss_changes":[6.17201E2,6.3500427E1,1.7457214E1,0E0,0E0,0E0,0E0],"parents":[2147483647,0,0,1,1,2,2],"right_children":[2,4,6,-1,-1,-1,-1],"split_conditions":[2.9674453E-1,5.5415615E-2,-1.0992593E0,5.9092235E-2,2.542778E-1,-2.9949418E-1,-1.5236054E-1],"split_indices":[14,1,2,0,0,0,0],"split_type":[0,0,0,0,0,0,0],"sum_hessian":[3.6E1,2E1,1.6E1,7E0,1.3E1,5E0,1.1E1],"tree_param":{"num_deleted":"0","num_feature":"15","num_nodes":"7","size_leaf_vector":"1"}},{"base_weights":[5.7961446E-1,-2.0918517E-1,2.7184129E0,3.3983058E-1,2.3361228E-1,-1.1783552E-1,8.228111E-2],"categories":[],"categories_nodes":[],"categories_segments":[],"categories_sizes":[],"default_left":[0,0,0,0,0,0,0],"id":10,"left_children":[1,-1,3,5,-1,-1,-1],"loss_changes":[3.2719415E2,0E0,1.0065396E2,4.2610588E1,0E0,0E0,0E0],"parents":[2147483647,0,0,2,2,3,3],"right_children":[2,-1,4,6,-1,-1,-1],"split_conditions":[-2.1375662E-1,-2.0918517E-1,1.7531486E-1,4.5825485E-2,2.3361228E-1,-1.1783552E-1,8.228111E-2],"split_indices":[2,0,1,12,0,0,0],"split_type":[0,0,0,0,0,0,0],"sum_hessian":[3E1,9E0,2.1E1,1E1,1.1E1,3E0,7E0],"tree_param":{"num_deleted":"0","num_feature":"15","num_nodes":"7","size_leaf_vector":"1"}},{"base_weights":[-2.9229322E-1,2.9672017E0,-3.9180644E0,1.2195892E0,2.0636605E-1,-2.6996607E-1,-1.4254652E-1,2.1892292E-2,6.901976E-2],"categories":[],"categories_nodes":[],"categories_segments":[],"categories_sizes":[],"default_left":[0,0,0,0,0,0,0,0,0],"id":11,"left_children":[1,3,5,7,-1,-1,-1,-1,-1],"loss_changes":[4.252621E2,3.34877E1,1.147879E1,5.269785E-1,0E0,0E0,0E0,0E0,0E0],"parents":[2147483647,0,0,1,1,2,2,3,3],"right_children":[2,4,6,8,-1,-1,-1,-1,-1],"split_conditions":[1.4155746E-1,6.9017634E-2,-1.0992593E0,-8.7355167E-1,2.0636605E-1,-2.6996607E-1,-1.4254652E-1,2.1892292E-2,6.901976E-2],"split_indices":[14,1,2,1,0,0,0,0,0],"split_type":[0,0,0,0,0,0,0,0,0],"sum_hessian":[3.4E1,1.8E1,1.6E1,8E0,1E1,5E0,1.1E1,2E0,6E0],"tree_param":{"num_deleted":"0","num_feature":"15","num_nodes":"9","size_leaf_vector":"1"}},{"base_weights":[-5.9937155E-1,3.0335119E0,-3.8183002E0,1.0728397E0,2.1493493E-1,-2.6296875E-1,-1.5416944E-1,2.116267E-2,6.0941316E-2],"categories":[],"categories_nodes":[],"categories_segments":[],"categories_sizes":[],"default_left":[0,0,0,0,0,0,0,0,0],"id":12,"left_children":[1,3,5,7,-1,-1,-1,-1,-1],"loss_changes":[4.2087262E2,3.755867E1,3.905487E0,2.4277401E-1,0E0,0E0,0E0,0E0,0E0],"parents":[2147483647,0,0,1,1,2,2,3,3],"right_children":[2,4,6,8,-1,-1,-1,-1,-1],"split_conditions":[1.4155746E-1,6.9017634E-2,-8.431625E-1,-8.7355167E-1,2.1493493E-1,-2.6296875E-1,-1.5416944E-1,2.116267E-2,6.0941316E-2],"split_indices":[14,1,10,1,0,0,0,0,0],"split_type":[0,0,0,0,0,0,0,0,0],"sum_hessian":[3.4E1,1.6E1,1.8E1,7E0,9E0,4E0,1.4E1,2E0,5E0],"tree_param":{"num_deleted":"0","num_feature":"15","num_nodes":"9","size_leaf_vector":"1"}},{"base_weights":[-1.4484145E-1,3.1916757E0,-3.6493413E0,1.1554499E0,4.199224E0,-2.5310788E-1,-1.3039379E-1,2.6522065E-2,7.1218334E-2,1.2442952E-1,2.4786483E-1],"categories":[],"categories_nodes":[],"categories_segments":[],"categories_sizes":[],"default_left":[0,0,0,0,0,0,0,0,0,0,0],"id":13,"left_children":[1,3,5,7,9,-1,-1,-1,-1,-1,-1],"loss_changes":[4.5597482E2,3.6179916E1,1.4755096E1,5.890598E-1,4.521515E0,0E0,0E0,0E0,0E0,0E0,0E0],"parents":[2147483647,0,0,1,1,2,2,3,3,4,4],"right_children":[2,4,6,8,10,-1,-1,-1,-1,-1,-1],"split_conditions":[2.9674453E-1,6.9017634E-2,-1.0992593E0,5.351111E-1,0E0,-2.5310788E-1,-1.3039379E-1,2.6522065E-2,7.1218334E-2,1.2442952E-1,2.4786483E-1],"split_indices":[14,1,2,7,2,0,0,0,0,0,0],"split_type":[0,0,0,0,0,0,0,0,0,0,0],"sum_hessian":[3.7E1,1.9E1,1.8E1,7E0,1.2E1,6E0,1.2E1,3E0,4E0,5E0,7E0],"tree_param":{"num_deleted":"0","num_feature":"15","num_nodes":"11","size_leaf_vector":"1"}},{"base_weights":[-5.473056E-1,-3.3306274E0,2.104486E0,-2.4226053E-1,-1.9373566E0,-7.4305916E-1,2.7677498E0,-1.1229914E-1,2.1006966E-2,1.9573212E-2,-1.0366573E-1,-5.51466E-2,1.5751678E-1],"categories":[],"categories_nodes":[],"categories_segments":[],"categories_sizes":[],"default_left":[0,0,0,0,0,0,0,0,0,0,0,0,0],"id":14,"left_children":[1,3,5,-1,7,9,11,-1,-1,-1,-1,-1,-1],"loss_changes":[2.4319452E2,2.4376678E1,3.4164062E1,0E0,8.219475E0,6.8484526E0,2.4206749E1,0E0,0E0,0E0,0E0,0E0,0E0],"parents":[2147483647,0,0,1,1,2,2,4,4,5,5,6,6],"right_children":[2,4,6,-1,8,10,12,-1,-1,-1,-1,-1,-1],"split_conditions":[-3.1555554E-1,-1.0992593E0,-3.162648E-1,-2.4226053E-1,-5.4755557E-1,-2.8675136E-1,-8.889218E-3,-1.1229914E-1,2.1006966E-2,1.9573212E-2,-1.0366573E-1,-5.51466E-2,1.5751678E-1],"split_indices":[7,2,3,0,7,0,0,0,0,0,0,0,0],"split_type":[0,0,0,0,0,0,0,0,0,0,0,0,0],"sum_hessian":[3.1E1,1.5E1,1.6E1,6E0,9E0,3E0,1.3E1,8E0,1E0,2E0,1E0,1E0,1.2E1],"tree_param":{"num_deleted":"0","num_feature":"15","num_nodes":"13","size_leaf_vector":"1"}},{"base_weights":[-1.0091008E-1,2.8581262E0,-3.383122E0,1.4657803E0,4.3970175E0,-2.3187779E-1,-1.184721E-1,4.1995287E-2,1.0870117E-1,5.3811263E-2,2.3387943E-1],"categories":[],"categories_nodes":[],"categories_segments":[],"categories_sizes":[],"default_left":[0,0,0,0,0,0,0,0,0,0,0],"id":15,"left_children":[1,3,5,7,9,-1,-1,-1,-1,-1,-1],"loss_changes":[3.6902017E2,3.640831E1,1.1900284E1,3.4932823E0,3.3513184E0,0E0,0E0,0E0,0E0,0E0,0E0],"parents":[2147483647,0,0,1,1,2,2,3,3,4,4],"right_children":[2,4,6,8,10,-1,-1,-1,-1,-1,-1],"split_conditions":[2.9674453E-1,3.726436E-1,-1.0992593E0,3.0508474E-1,1.1005291E-1,-2.3187779E-1,-1.184721E-1,4.1995287E-2,1.0870117E-1,5.3811263E-2,2.3387943E-1],"split_indices":[14,3,2,4,2,0,0,0,0,0,0],"split_type":[0,0,0,0,0,0,0,0,0,0,0],"sum_hessian":[3.6E1,1.9E1,1.7E1,1.1E1,8E0,6E0,1.1E1,7E0,4E0,1E0,7E0],"tree_param":{"num_deleted":"0","num_feature":"15","num_nodes":"11","size_leaf_vector":"1"}},{"base_weights":[-9.1929115E-2,2.9351192E0,-3.2820396E0,9.9978924E-1,3.980746E0,-2.2194007E-1,-1.1668793E-1,2.4640178E-2,6.0270995E-2,9.458723E-2,2.2334431E-1],"categories":[],"categories_nodes":[],"categories_segments":[],"categories_sizes":[],"default_left":[0,0,0,0,0,0,0,0,0,0,0],"id":16,"left_children":[1,3,5,7,9,-1,-1,-1,-1,-1,-1],"loss_changes":[3.5727145E2,3.446913E1,9.385742E0,2.3997927E-1,3.7363434E0,0E0,0E0,0E0,0E0,0E0,0E0],"parents":[2147483647,0,0,1,1,2,2,3,3,4,4],"right_children":[2,4,6,8,10,-1,-1,-1,-1,-1,-1],"split_conditions":[2.9674453E-1,6.9017634E-2,-1.0992593E0,5.351111E-1,0E0,-2.2194007E-1,-1.1668793E-1,2.4640178E-2,6.0270995E-2,9.458723E-2,2.2334431E-1],"split_indices":[14,1,2,7,2,0,0,0,0,0,0],"split_type":[0,0,0,0,0,0,0,0,0,0,0],"sum_hessian":[3.5E1,1.8E1,1.7E1,7E0,1.1E1,6E0,1.1E1,3E0,4E0,3E0,8E0],"tree_param":{"num_deleted":"0","num_feature":"15","num_nodes":"11","size_leaf_vector":"1"}},{"base_weights":[1.8565229E-1,2.6962512E0,-3.0742788E0,1.4510715E0,4.0453596E0,-2.1752428E-1,-1.0899929E-1,3.8411953E-2,1.0598349E-1,5.0959207E-2,2.1341793E-1],"categories":[],"categories_nodes":[],"categories_segments":[],"categories_sizes":[],"default_left":[0,0,0,0,0,0,0,0,0,0,0],"id":17,"left_children":[1,3,5,7,9,-1,-1,-1,-1,-1,-1],"loss_changes":[3.1929547E2,3.1087326E1,9.918152E0,4.306612E0,2.3980865E0,0E0,0E0,0E0,0E0,0E0,0E0],"parents":[2147483647,0,0,1,1,2,2,3,3,4,4],"right_children":[2,4,6,8,10,-1,-1,-1,-1,-1,-1],"split_conditions":[2.9674453E-1,3.726436E-1,-1.0992593E0,3.0508474E-1,1.1005291E-1,-2.1752428E-1,-1.0899929E-1,3.8411953E-2,1.0598349E-1,5.0959207E-2,2.1341793E-1],"split_indices":[14,3,2,4,2,0,0,0,0,0,0],"split_type":[0,0,0,0,0,0,0,0,0,0,0],"sum_hessian":[3.7E1,2.1E1,1.6E1,1.2E1,9E0,5E0,1.1E1,7E0,5E0,1E0,8E0],"tree_param":{"num_deleted":"0","num_feature":"15","num_nodes":"11","size_leaf_vector":"1"}},{"base_weights":[-8.399221E-2,2.3618317E0,-2.7969081E0,8.738251E-1,1.6405086E-1,-1.917942E-1,-1.05111696E-1,2.5484657E-2,6.0078334E-2],"categories":[],"categories_nodes":[],"categories_segments":[],"categories_sizes":[],"default_left":[0,0,0,0,0,0,0,0,0],"id":18,"left_children":[1,3,5,7,-1,-1,-1,-1,-1],"loss_changes":[2.5211246E2,2.4488045E1,4.9275665E0,4.6164036E-1,0E0,0E0,0E0,0E0,0E0],"parents":[2147483647,0,0,1,1,2,2,3,3],"right_children":[2,4,6,8,-1,-1,-1,-1,-1],"split_conditions":[1.4155746E-1,6.9017634E-2,-1.1483598E0,-7.9093195E-2,1.6405086E-1,-1.917942E-1,-1.05111696E-1,2.5484657E-2,6.0078334E-2],"split_indices":[14,1,2,1,0,0,0,0,0],"split_type":[0,0,0,0,0,0,0,0,0],"sum_hessian":[3.6E1,1.9E1,1.7E1,8E0,1.1E1,5E0,1.2E1,5E0,3E0],"tree_param":{"num_deleted":"0","num_feature":"15","num_nodes":"9","size_leaf_vector":"1"}},{"base_weights":[-5.634007E-2,2.5648777E0,-2.8125515E0,1.2459592E0,3.7592003E0,-1.9550543E-1,-1.0026046E-1,3.4581266E-2,8.864174E-2,4.818325E-2,1.9813707E-1],"categories":[],"categories_nodes":[],"categories_segments":[],"categories_sizes":[],"default_left":[0,0,0,0,0,0,0,0,0,0,0],"id":19,"left_children":[1,3,5,7,9,-1,-1,-1,-1,-1,-1],"loss_changes":[2.8174982E2,2.682048E1,8.995392E0,1.986578E0,1.8713074E0,0E0,0E0,0E0,0E0,0E0,0E0],"parents":[2147483647,0,0,1,1,2,2,3,3,4,4],"right_children":[2,4,6,8,10,-1,-1,-1,-1,-1,-1],"split_conditions":[2.9674453E-1,3.726436E-1,-1.0992593E0,3.0508474E-1,1.1005291E-1,-1.9550543E-1,-1.0026046E-1,3.4581266E-2,8.864174E-2,4.818325E-2,1.9813707E-1],"split_indices":[14,3,2,4,2,0,0,0,0,0,0],"split_type":[0,0,0,0,0,0,0,0,0,0,0],"sum_hessian":[3.7E1,1.9E1,1.8E1,1E1,9E0,6E0,1.2E1,6E0,4E0,1E0,8E0],"tree_param":{"num_deleted":"0","num_feature":"15","num_nodes":"11","size_leaf_vector":"1"}},{"base_weights":[5.3087234E-2,2.4016213E0,-2.7130167E0,1.2577635E0,3.659918E0,-1.8712671E-1,-9.0561576E-2,2.9774804E-2,9.1039084E-2,4.697876E-2,1.941257E-1],"categories":[],"categories_nodes":[],"categories_segments":[],"categories_sizes":[],"default_left":[0,0,0,0,0,0,0,0,0,0,0],"id":20,"left_children":[1,3,5,7,9,-1,-1,-1,-1,-1,-1],"loss_changes":[2.4038205E2,2.4182945E1,9.00428E0,3.3901558E0,1.801918E0,0E0,0E0,0E0,0E0,0E0,0E0],"parents":[2147483647,0,0,1,1,2,2,3,3,4,4],"right_children":[2,4,6,8,10,-1,-1,-1,-1,-1,-1],"split_conditions":[2.9674453E-1,3.726436E-1,-1.0992593E0,3.0508474E-1,1.1005291E-1,-1.8712671E-1,-9.0561576E-2,2.9774804E-2,9.1039084E-2,4.697876E-2,1.941257E-1],"split_indices":[14,3,2,4,2,0,0,0,0,0,0],"split_type":[0,0,0,0,0,0,0,0,0,0,0],"sum_hessian":[3.5E1,1.9E1,1.6E1,1.1E1,8E0,6E0,1E1,6E0,5E0,1E0,7E0],"tree_param":{"num_deleted":"0","num_feature":"15","num_nodes":"11","size_leaf_vector":"1"}},{"base_weights":[8.2733154E-2,2.2730532E0,-2.598921E0,7.790086E-1,3.0711496E0,-1.7910701E-1,-9.043999E-2,2.1741169E-2,5.502672E-2,8.724569E-2,1.807034E-1],"categories":[],"categories_nodes":[],"categories_segments":[],"categories_sizes":[],"default_left":[0,0,0,0,0,0,0,0,0,0,0],"id":21,"left_children":[1,3,5,7,9,-1,-1,-1,-1,-1,-1],"loss_changes":[2.3498105E2,2.3840157E1,7.5041428E0,5.1744175E-1,3.774292E0,0E0,0E0,0E0,0E0,0E0,0E0],"parents":[2147483647,0,0,1,1,2,2,3,3,4,4],"right_children":[2,4,6,8,10,-1,-1,-1,-1,-1,-1],"split_conditions":[2.9674453E-1,6.9017634E-2,-1.0992593E0,-7.9093195E-2,0E0,-1.7910701E-1,-9.043999E-2,2.1741169E-2,5.502672E-2,8.724569E-2,1.807034E-1],"split_indices":[14,1,2,1,2,0,0,0,0,0,0],"split_type":[0,0,0,0,0,0,0,0,0,0,0],"sum_hessian":[3.8E1,2.1E1,1.7E1,8E0,1.3E1,6E0,1.1E1,5E0,3E0,5E0,8E0],"tree_param":{"num_deleted":"0","num_feature":"15","num_nodes":"11","size_leaf_vector":"1"}},{"base_weights":[9.336897E-2,2.1169841E0,-2.4419856E0,6.584516E-1,2.6950374E0,-1.6039702E-1,-9.010967E-2,8.774566E-3,3.5484824E-2,8.436012E-2,1.6200066E-1],"categories":[],"categories_nodes":[],"categories_segments":[],"categories_sizes":[],"default_left":[0,0,0,0,0,0,0,0,0,0,0],"id":22,"left_children":[1,3,5,7,9,-1,-1,-1,-1,-1,-1],"loss_changes":[1.8474002E2,1.5087639E1,2.0595016E0,4.8698902E-2,2.2228851E0,0E0,0E0,0E0,0E0,0E0,0E0],"parents":[2147483647,0,0,1,1,2,2,3,3,4,4],"right_children":[2,4,6,8,10,-1,-1,-1,-1,-1,-1],"split_conditions":[2.9674453E-1,5.5415615E-2,-1.1483598E0,-8.7355167E-1,1.1005291E-1,-1.6039702E-1,-9.010967E-2,8.774566E-3,3.5484824E-2,8.436012E-2,1.6200066E-1],"split_indices":[14,1,2,1,2,0,0,0,0,0,0],"split_type":[0,0,0,0,0,0,0,0,0,0,0],"sum_hessian":[3.4E1,1.9E1,1.5E1,6E0,1.3E1,5E0,1E1,1E0,5E0,6E0,7E0],"tree_param":{"num_deleted":"0","num_feature":"15","num_nodes":"11","size_leaf_vector":"1"}},{"base_weights":[5.444209E-2,2.1302016E0,-2.139662E0,7.499733E-1,2.872837E0,-2.4119966E0,-5.9649657E-2,1.918045E-2,5.1021766E-2,8.295307E-2,1.7514054E-1,-1.3896383E-1,-6.3424684E-2],"categories":[],"categories_nodes":[],"categories_segments":[],"categories_sizes":[],"default_left":[0,0,0,0,0,0,0,0,0,0,0,0,0],"id":23,"left_children":[1,3,5,7,9,11,-1,-1,-1,-1,-1,-1,-1],"loss_changes":[1.6851749E2,1.7320564E1,1.763092E0,4.0125275E-1,3.3643951E0,1.9343185E0,0E0,0E0,0E0,0E0,0E0,0E0,0E0],"parents":[2147483647,0,0,1,1,2,2,3,3,4,4,5,5],"right_children":[2,4,6,8,10,12,-1,-1,-1,-1,-1,-1,-1],"split_conditions":[2.9674453E-1,6.9017634E-2,1.0169491E-1,-1.8790932E-1,3.2090077E-1,1.4608138E0,-5.9649657E-2,1.918045E-2,5.1021766E-2,8.295307E-2,1.7514054E-1,-1.3896383E-1,-6.3424684E-2],"split_indices":[14,1,4,1,0,6,0,0,0,0,0,0,0],"split_type":[0,0,0,0,0,0,0,0,0,0,0,0,0],"sum_hessian":[3.5E1,1.8E1,1.7E1,7E0,1.1E1,1.2E1,5E0,4E0,3E0,5E0,6E0,8E0,4E0],"tree_param":{"num_deleted":"0","num_feature":"15","num_nodes":"13","size_leaf_vector":"1"}},{"base_weights":[-4.6854176E-2,1.7558346E0,-2.0472386E0,5.669222E-1,2.352409E0,-2.306967E0,-5.7164382E-2,1.601181E-2,3.6677457E-2,7.230676E-2,1.3690315E-1,-2.871399E-2,-1.2017504E-1],"categories":[],"categories_nodes":[],"categories_segments":[],"categories_sizes":[],"default_left":[0,0,0,0,0,0,0,0,0,0,0,0,0],"id":24,"left_children":[1,3,5,7,9,11,-1,-1,-1,-1,-1,-1,-1],"loss_changes":[1.3701923E2,1.2851856E1,1.5885391E0,9.3927145E-2,5.8399963E-1,7.941437E-1,0E0,0E0,0E0,0E0,0E0,0E0,0E0],"parents":[2147483647,0,0,1,1,2,2,3,3,4,4,5,5],"right_children":[2,4,6,8,10,12,-1,-1,-1,-1,-1,-1,-1],"split_conditions":[1.4155746E-1,5.5415615E-2,1.1259259E-1,5.351111E-1,1.1005291E-1,-9.1944146E-1,-5.7164382E-2,1.601181E-2,3.6677457E-2,7.230676E-2,1.3690315E-1,-2.871399E-2,-1.2017504E-1],"split_indices":[14,1,2,7,2,0,0,0,0,0,0,0,0],"split_type":[0,0,0,0,0,0,0,0,0,0,0,0,0],"sum_hessian":[3.6E1,1.9E1,1.7E1,7E0,1.2E1,1.2E1,5E0,4E0,3E0,5E0,7E0,1E0,1.1E1],"tree_param":{"num_deleted":"0","num_feature":"15","num_nodes":"13","size_leaf_vector":"1"}},{"base_weights":[-3.3124868E-2,-2.6071587E0,1.2552723E0,-1.5009151E-1,-5.33679E-2,-2.153244E-1,2.1519852E0,4.4206467E-2,-5.478242E-2,6.1044466E-2,1.6725737E-1],"categories":[],"categories_nodes":[],"categories_segments":[],"categories_sizes":[],"default_left":[0,0,0,0,0,0,0,0,0,0,0],"id":25,"left_children":[1,3,5,-1,-1,7,9,-1,-1,-1,-1],"loss_changes":[1.1934591E2,4.088562E0,3.2112244E1,0E0,0E0,1.064745E1,1.2580177E1,0E0,0E0,0E0,0E0],"parents":[2147483647,0,0,1,1,2,2,5,5,6,6],"right_children":[2,4,6,-1,-1,8,10,-1,-1,-1,-1],"split_conditions":[-2.1375662E-1,1.6139507E0,1.6333938E-1,-1.5009151E-1,-5.33679E-2,0E0,8.4094185E-1,4.4206467E-2,-5.478242E-2,6.1044466E-2,1.6725737E-1],"split_indices":[2,6,0,0,0,3,13,0,0,0,0],"split_type":[0,0,0,0,0,0,0,0,0,0,0],"sum_hessian":[3.4E1,1.1E1,2.3E1,8E0,3E0,9E0,1.4E1,4E0,5E0,9E0,5E0],"tree_param":{"num_deleted":"0","num_feature":"15","num_nodes":"11","size_leaf_vector":"1"}},{"base_weights":[1.0101318E-2,1.8707364E0,-2.1794753E0,1.134285E0,1.5381955E-1,-1.4805974E-1,-7.419416E-2,1.4052887E-2,7.23735E-2],"categories":[],"categories_nodes":[],"categories_segments":[],"categories_sizes":[],"default_left":[0,0,0,0,0,0,0,0,0],"id":26,"left_children":[1,3,5,7,-1,-1,-1,-1,-1],"loss_changes":[1.5074132E2,1.4268616E1,4.8498154E0,3.3342304E0,0E0,0E0,0E0,0E0,0E0],"parents":[2147483647,0,0,1,1,2,2,3,3],"right_children":[2,4,6,8,-1,-1,-1,-1,-1],"split_conditions":[2.9674453E-1,2.3068783E-1,-1.0992593E0,-7.9093195E-2,1.5381955E-1,-1.4805974E-1,-7.419416E-2,1.4052887E-2,7.23735E-2],"split_indices":[14,2,2,1,0,0,0,0,0],"split_type":[0,0,0,0,0,0,0,0,0],"sum_hessian":[3.5E1,1.9E1,1.6E1,1.3E1,6E0,6E0,1E1,4E0,9E0],"tree_param":{"num_deleted":"0","num_feature":"15","num_nodes":"9","size_leaf_vector":"1"}},{"base_weights":[7.439382E-2,1.817713E0,-2.0834942E0,5.8375263E-1,2.3929965E0,-2.4575322E0,-4.940847E-2,1.2872544E-2,4.2284586E-2,7.255386E-2,1.4590259E-1,-1.3297962E-1,-4.8241045E-2],"categories":[],"categories_nodes":[],"categories_segments":[],"categories_sizes":[],"default_left":[0,0,0,0,0,0,0,0,0,0,0,0,0],"id":27,"left_children":[1,3,5,7,9,11,-1,-1,-1,-1,-1,-1,-1],"loss_changes":[1.4297705E2,1.3510498E1,4.536331E0,4.6604514E-1,2.6895218E0,1.0533829E0,0E0,0E0,0E0,0E0,0E0,0E0,0E0],"parents":[2147483647,0,0,1,1,2,2,3,3,4,4,5,5],"right_children":[2,4,6,8,10,12,-1,-1,-1,-1,-1,-1,-1],"split_conditions":[2.9674453E-1,6.9017634E-2,1.1259259E-1,-7.9093195E-2,4.157549E-2,1.6139507E0,-4.940847E-2,1.2872544E-2,4.2284586E-2,7.255386E-2,1.4590259E-1,-1.3297962E-1,-4.8241045E-2],"split_indices":[14,1,2,1,8,6,0,0,0,0,0,0,0],"split_type":[0,0,0,0,0,0,0,0,0,0,0,0,0],"sum_hessian":[3.6E1,2E1,1.6E1,7E0,1.3E1,1.1E1,5E0,4E0,3E0,6E0,7E0,9E0,2E0],"tree_param":{"num_deleted":"0","num_feature":"15","num_nodes":"13","size_leaf_vector":"1"}},{"base_weights":[5.722194E-2,-2.2720299E0,1.172974E0,-1.23939894E-1,-4.127299E-2,-3.2961044E-1,2.0387783E0,2.7406389E-2,-5.0306197E-2,6.241223E-2,1.4384292E-1],"categories":[],"categories_nodes":[],"categories_segments":[],"categories_sizes":[],"default_left":[0,0,0,0,0,0,0,0,0,0,0],"id":28,"left_children":[1,3,5,-1,-1,7,9,-1,-1,-1,-1],"loss_changes":[9.622426E1,1.5431023E0,3.319561E1,0E0,0E0,6.489501E0,7.009468E0,0E0,0E0,0E0,0E0],"parents":[2147483647,0,0,1,1,2,2,5,5,6,6],"right_children":[2,4,6,-1,-1,8,10,-1,-1,-1,-1],"split_conditions":[-2.1375662E-1,1.6139507E0,1.6333938E-1,-1.23939894E-1,-4.127299E-2,0E0,2.7386242E-1,2.7406389E-2,-5.0306197E-2,6.241223E-2,1.4384292E-1],"split_indices":[2,6,0,0,0,3,2,0,0,0,0],"split_type":[0,0,0,0,0,0,0,0,0,0,0],"sum_hessian":[3.5E1,1.1E1,2.4E1,9E0,2E0,9E0,1.5E1,4E0,5E0,9E0,6E0],"tree_param":{"num_deleted":"0","num_feature":"15","num_nodes":"11","size_leaf_vector":"1"}},{"base_weights":[9.5288046E-2,1.6104442E0,-1.7819806E0,5.13343E-1,2.2460954E0,-1.3985575E0,-1.5525512E-1,1.2928264E-2,3.835869E-2,1.5105645E-1,7.8297764E-2,-1.5685653E-2,-7.268192E-2],"categories":[],"categories_nodes":[],"categories_segments":[],"categories_sizes":[],"default_left":[0,0,0,0,0,0,0,0,0,0,0,0,0],"id":29,"left_children":[1,3,5,7,9,11,-1,-1,-1,-1,-1,-1,-1],"loss_changes":[1.0811092E2,1.3491829E1,4.2817E0,3.8366914E-1,2.1217575E0,4.4028854E-1,0E0,0E0,0E0,0E0,0E0,0E0,0E0],"parents":[2147483647,0,0,1,1,2,2,3,3,4,4,5,5],"right_children":[2,4,6,8,10,12,-1,-1,-1,-1,-1,-1,-1],"split_conditions":[2.9674453E-1,6.9017634E-2,1.1168431E0,-7.9093195E-2,2.8266665E-1,4.5681712E-1,-1.5525512E-1,1.2928264E-2,3.835869E-2,1.5105645E-1,7.8297764E-2,-1.5685653E-2,-7.268192E-2],"split_indices":[14,1,14,1,7,14,0,0,0,0,0,0,0],"split_type":[0,0,0,0,0,0,0,0,0,0,0,0,0],"sum_hessian":[3.6E1,2E1,1.6E1,8E0,1.2E1,1.4E1,2E0,5E0,3E0,4E0,8E0,1E0,1.3E1],"tree_param":{"num_deleted":"0","num_feature":"15","num_nodes":"13","size_leaf_vector":"1"}},{"base_weights":[7.024672E-2,1.543284E0,-1.7535199E0,7.2690135E-1,2.368615E0,-2.6645267E0,-1.1518898E0,1.2389437E-2,5.1686317E-2,3.232479E-2,1.24406435E-1,-1.4368446E-1,-4.0467836E-2,-1.5293503E-2,-6.004972E-2],"categories":[],"categories_nodes":[],"categories_segments":[],"categories_sizes":[],"default_left":[0,0,0,0,0,0,0,0,0,0,0,0,0,0,0],"id":30,"left_children":[1,3,5,7,9,11,13,-1,-1,-1,-1,-1,-1,-1,-1],"loss_changes":[1.02105804E2,1.2427753E1,6.2482758E0,1.5078988E0,4.4960022E-1,2.3536682E-3,1.3117123E-1,0E0,0E0,0E0,0E0,0E0,0E0,0E0,0E0],"parents":[2147483647,0,0,1,1,2,2,3,3,4,4,5,5,6,6],"right_children":[2,4,6,8,10,12,14,-1,-1,-1,-1,-1,-1,-1,-1],"split_conditions":[2.9674453E-1,3.726436E-1,-1.0992593E0,-7.9093195E-2,6.9017634E-2,-6.440678E-1,4.5681712E-1,1.2389437E-2,5.1686317E-2,3.232479E-2,1.24406435E-1,-1.4368446E-1,-4.0467836E-2,-1.5293503E-2,-6.004972E-2],"split_indices":[14,3,2,1,1,4,14,0,0,0,0,0,0,0,0],"split_type":[0,0,0,0,0,0,0,0,0,0,0,0,0,0,0],"sum_hessian":[3.6E1,2E1,1.6E1,1.1E1,9E0,5E0,1.1E1,5E0,6E0,1E0,8E0,4E0,1E0,1E0,1E1],"tree_param":{"num_deleted":"0","num_feature":"15","num_nodes":"15","size_leaf_vector":"1"}},{"base_weights":[8.105087E-2,-1.4319258E0,1.2299354E0,-1.2788308E-1,-8.435421E-1,4.5362037E-1,1.2173724E-1,-5.2766558E-2,3.7153434E-2,-1.8184472E-2,4.7404565E-2],"categories":[],"categories_nodes":[],"categories_segments":[],"categories_sizes":[],"default_left":[0,0,0,0,0,0,0,0,0,0,0],"id":31,"left_children":[1,3,5,-1,7,9,-1,-1,-1,-1,-1],"loss_changes":[6.433765E1,8.440334E0,1.8537094E1,0E0,4.8165054E0,6.002713E0,0E0,0E0,0E0,0E0,0E0],"parents":[2147483647,0,0,1,1,2,2,4,4,5,5],"right_children":[2,4,6,-1,8,10,-1,-1,-1,-1,-1],"split_conditions":[-7.142405E-3,-1.0992593E0,2.3068783E-1,-1.2788308E-1,1.0508474E0,2.8463906E-1,1.2173724E-1,-5.2766558E-2,3.7153434E-2,-1.8184472E-2,4.7404565E-2],"split_indices":[13,2,2,0,4,9,0,0,0,0,0],"split_type":[0,0,0,0,0,0,0,0,0,0,0],"sum_hessian":[3.5E1,1.5E1,2E1,4E0,1.1E1,1.3E1,7E0,1E1,1E0,5E0,8E0],"tree_param":{"num_deleted":"0","num_feature":"15","num_nodes":"11","size_leaf_vector":"1"}},{"base_weights":[5.4538213E-2,1.4016353E0,-1.612731E0,9.349051E-1,1.3540955E-1,-1.1778717E0,-1.365778E-1,1.4427567E-2,6.306149E-2,-6.311439E-2,-2.2379177E-2],"categories":[],"categories_nodes":[],"categories_segments":[],"categories_sizes":[],"default_left":[0,0,0,0,0,0,0,0,0,0,0],"id":32,"left_children":[1,3,5,7,-1,9,-1,-1,-1,-1,-1],"loss_changes":[8.536148E1,1.0274086E1,5.0536118E0,3.2217293E0,0E0,2.980938E-1,0E0,0E0,0E0,0E0,0E0],"parents":[2147483647,0,0,1,1,2,2,3,3,5,5],"right_children":[2,4,6,8,-1,10,-1,-1,-1,-1,-1],"split_conditions":[2.9674453E-1,1.4444239E0,1.1168431E0,-3.627204E-2,1.3540955E-1,4.0677965E-1,-1.365778E-1,1.4427567E-2,6.306149E-2,-6.311439E-2,-2.2379177E-2],"split_indices":[14,0,14,1,0,4,0,0,0,0,0],"split_type":[0,0,0,0,0,0,0,0,0,0,0],"sum_hessian":[3.6E1,2E1,1.6E1,1.6E1,4E0,1.3E1,3E0,6E0,1E1,1.1E1,2E0],"tree_param":{"num_deleted":"0","num_feature":"15","num_nodes":"11","size_leaf_vector":"1"}},{"base_weights":[-3.8344305E-2,-1.4021102E0,1.1909622E0,-2.227515E0,-8.037815E-1,4.612761E-1,2.2278318E0,-1.2809311E-1,-4.6388246E-2,-4.786953E-2,2.2147942E-2,-1.6735649E-2,5.003042E-2,1.5201467E-1,7.2514795E-2],"categories":[],"categories_nodes":[],"categories_segments":[],"categories_sizes":[],"default_left":[0,0,0,0,0,0,0,0,0,0,0,0,0,0,0],"id":33,"left_children":[1,3,5,7,9,11,13,-1,-1,-1,-1,-1,-1,-1,-1],"loss_changes":[6.369985E1,7.0991096E0,1.4104143E1,6.6516876E-1,2.7222104E0,5.9158506E0,6.444168E-1,0E0,0E0,0E0,0E0,0E0,0E0,0E0,0E0],"parents":[2147483647,0,0,1,1,2,2,3,3,4,4,5,5,6,6],"right_children":[2,4,6,8,10,12,14,-1,-1,-1,-1,-1,-1,-1,-1],"split_conditions":[-7.142405E-3,-1.0992593E0,2.3068783E-1,-6.440678E-1,1.0508474E0,2.8463906E-1,1.5644445E-1,-1.2809311E-1,-4.6388246E-2,-4.786953E-2,2.2147942E-2,-1.6735649E-2,5.003042E-2,1.5201467E-1,7.2514795E-2],"split_indices":[13,2,2,4,4,9,7,0,0,0,0,0,0,0,0],"split_type":[0,0,0,0,0,0,0,0,0,0,0,0,0,0,0],"sum_hessian":[3.6E1,1.7E1,1.9E1,6E0,1.1E1,1.2E1,7E0,4E0,2E0,1E1,1E0,5E0,7E0,2E0,5E0],"tree_param":{"num_deleted":"0","num_feature":"15","num_nodes":"15","size_leaf_vector":"1"}},{"base_weights":[5.598862E-2,1.3013295E0,-1.4856671E0,3.184271E-1,1.7700359E0,-1.080295E0,-1.2665263E-1,1.7456E-2,2.5894165E-3,1.4694749E-1,6.651523E-2,-1.1835861E-2,-5.634883E-2],"categories":[],"categories_nodes":[],"categories_segments":[],"categories_sizes":[],"default_left":[0,0,0,0,0,0,0,0,0,0,0,0,0],"id":34,"left_children":[1,3,5,7,9,11,-1,-1,-1,-1,-1,-1,-1],"loss_changes":[7.296916E1,9.110912E0,4.48143E0,4.7390997E-2,3.286419E0,2.8453827E-1,0E0,0E0,0E0,0E0,0E0,0E0,0E0],"parents":[2147483647,0,0,1,1,2,2,3,3,4,4,5,5],"right_children":[2,4,6,8,10,12,-1,-1,-1,-1,-1,-1,-1],"split_conditions":[2.9674453E-1,5.5415615E-2,1.1168431E0,9.124042E-1,1.5644445E-1,4.5681712E-1,-1.2665263E-1,1.7456E-2,2.5894165E-3,1.4694749E-1,6.651523E-2,-1.1835861E-2,-5.634883E-2],"split_indices":[14,1,14,0,7,14,0,0,0,0,0,0,0],"split_type":[0,0,0,0,0,0,0,0,0,0,0,0,0],"sum_hessian":[3.6E1,2E1,1.6E1,7E0,1.3E1,1.3E1,3E0,6E0,1E0,2E0,1.1E1,1E0,1.2E1],"tree_param":{"num_deleted":"0","num_feature":"15","num_nodes":"13","size_leaf_vector":"1"}},{"base_weights":[-5.6361303E-2,1.3661592E0,-1.4010459E0,1.3263874E-1,9.319845E-1,-1.0542269E0,-1.2190304E-1,1.026802E-2,5.887711E-2,-5.6191254E-2,-1.8901316E-2],"categories":[],"categories_nodes":[],"categories_segments":[],"categories_sizes":[],"default_left":[0,0,0,0,0,0,0,0,0,0,0],"id":35,"left_children":[1,3,5,-1,7,9,-1,-1,-1,-1,-1],"loss_changes":[7.0776344E1,7.5827446E0,4.2632027E0,0E0,2.4346018E0,3.2816124E-1,0E0,0E0,0E0,0E0,0E0],"parents":[2147483647,0,0,1,1,2,2,4,4,5,5],"right_children":[2,4,6,-1,8,10,-1,-1,-1,-1,-1],"split_conditions":[2.9674453E-1,2.8266665E-1,1.1168431E0,1.3263874E-1,-3.627204E-2,4.0677965E-1,-1.2190304E-1,1.026802E-2,5.887711E-2,-5.6191254E-2,-1.8901316E-2],"split_indices":[14,7,14,0,1,4,0,0,0,0,0],"split_type":[0,0,0,0,0,0,0,0,0,0,0],"sum_hessian":[3.5E1,1.7E1,1.8E1,3E0,1.4E1,1.5E1,3E0,4E0,1E1,1.3E1,2E0],"tree_param":{"num_deleted":"0","num_feature":"15","num_nodes":"11","size_leaf_vector":"1"}},{"base_weights":[-4.916403E-2,1.1912605E0,-1.3557696E0,8.0768204E-1,2.4277592E0,-1.0011545E0,-1.173317E-1,1.4437921E-2,5.450802E-2,1.3762793E-1,3.6334038E-2,-1.7226538E-2,-5.3783566E-2],"categories":[],"categories_nodes":[],"categories_segments":[],"categories_sizes":[],"default_left":[0,0,0,0,0,0,0,0,0,0,0,0,0],"id":36,"left_children":[1,3,5,7,9,11,-1,-1,-1,-1,-1,-1,-1],"loss_changes":[5.9961918E1,7.0507317E0,3.9754143E0,2.0305624E0,2.0980644E-1,3.6333847E-1,0E0,0E0,0E0,0E0,0E0,0E0,0E0],"parents":[2147483647,0,0,1,1,2,2,3,3,4,4,5,5],"right_children":[2,4,6,8,10,12,-1,-1,-1,-1,-1,-1,-1],"split_conditions":[2.9674453E-1,1.161958E0,1.1168431E0,5.5415615E-2,1.5985036E0,-8.8135594E-1,-1.173317E-1,1.4437921E-2,5.450802E-2,1.3762793E-1,3.6334038E-2,-1.7226538E-2,-5.3783566E-2],"split_indices":[14,11,14,1,0,4,0,0,0,0,0,0,0],"split_type":[0,0,0,0,0,0,0,0,0,0,0,0,0],"sum_hessian":[3.5E1,1.8E1,1.7E1,1.5E1,3E0,1.4E1,3E0,6E0,9E0,2E0,1E0,2E0,1.2E1],"tree_param":{"num_deleted":"0","num_feature":"15","num_nodes":"13","size_leaf_vector":"1"}},{"base_weights":[-1.289143E-1,9.223522E-1,-1.2898263E0,2.6202393E-1,1.2577579E0,-9.45489E-1,-1.1293173E-1,6.633377E-3,1.7910672E-2,1.7096901E-2,6.5279074E-2,-5.074472E-2,-1.6478475E-2],"categories":[],"categories_nodes":[],"categories_segments":[],"categories_sizes":[],"default_left":[0,0,0,0,0,0,0,0,0,0,0,0,0],"id":37,"left_children":[1,3,5,7,9,11,-1,-1,-1,-1,-1,-1,-1],"loss_changes":[4.6345505E1,4.0999947E0,3.8692284E0,5.2018583E-2,1.2294006E-1,3.0674362E-1,0E0,0E0,0E0,0E0,0E0,0E0,0E0],"parents":[2147483647,0,0,1,1,2,2,3,3,4,4,5,5],"right_children":[2,4,6,8,10,12,-1,-1,-1,-1,-1,-1,-1],"split_conditions":[1.4155746E-1,5.5415615E-2,1.1168431E0,5.351111E-1,-3.435488E-1,4.0677965E-1,-1.1293173E-1,6.633377E-3,1.7910672E-2,1.7096901E-2,6.5279074E-2,-5.074472E-2,-1.6478475E-2],"split_indices":[14,1,14,7,10,4,0,0,0,0,0,0,0],"split_type":[0,0,0,0,0,0,0,0,0,0,0,0,0],"sum_hessian":[3.6E1,1.9E1,1.7E1,7E0,1.2E1,1.4E1,3E0,4E0,3E0,1E0,1.1E1,1.2E1,2E0],"tree_param":{"num_deleted":"0","num_feature":"15","num_nodes":"13","size_leaf_vector":"1"}},{"base_weights":[3.7097126E-2,1.1403555E0,-1.2520986E0,1.3279814E-1,8.410303E-1,-9.2280173E-1,-1.0869684E-1,5.1620486E-3,4.6087805E-2,-1.4960862E-2,-4.9786057E-2],"categories":[],"categories_nodes":[],"categories_segments":[],"categories_sizes":[],"default_left":[0,0,0,0,0,0,0,0,0,0,0],"id":38,"left_children":[1,3,5,-1,7,9,-1,-1,-1,-1,-1],"loss_changes":[5.5475838E1,7.2931023E0,3.4579391E0,0E0,1.0364494E0,3.8413334E-1,0E0,0E0,0E0,0E0,0E0],"parents":[2147483647,0,0,1,1,2,2,4,4,5,5],"right_children":[2,4,6,-1,8,10,-1,-1,-1,-1,-1],"split_conditions":[2.9674453E-1,1.5644445E-1,1.1168431E0,1.3279814E-1,-2.8675136E-1,-8.8135594E-1,-1.0869684E-1,5.1620486E-3,4.6087805E-2,-1.4960862E-2,-4.9786057E-2],"split_indices":[14,7,14,0,0,4,0,0,0,0,0],"split_type":[0,0,0,0,0,0,0,0,0,0,0],"sum_hessian":[3.7E1,2E1,1.7E1,2E0,1.8E1,1.4E1,3E0,2E0,1.6E1,2E0,1.2E1],"tree_param":{"num_deleted":"0","num_feature":"15","num_nodes":"11","size_leaf_vector":"1"}},{"base_weights":[-1.0098431E-2,1.0767479E0,-1.2171445E0,6.4205575E-1,1.9840202E0,-1.08189486E-1,-8.8356274E-1,7.6026283E-3,4.3592606E-2,1.1761017E-1,4.1588467E-2,-4.768181E-2,-1.4269511E-2],"categories":[],"categories_nodes":[],"categories_segments":[],"categories_sizes":[],"default_left":[0,0,0,0,0,0,0,0,0,0,0,0,0],"id":39,"left_children":[1,3,5,7,9,-1,11,-1,-1,-1,-1,-1,-1],"loss_changes":[4.984988E1,6.6138306E0,3.7722588E0,1.556447E0,5.889454E-1,0E0,3.5658073E-1,0E0,0E0,0E0,0E0,0E0,0E0],"parents":[2147483647,0,0,1,1,2,2,3,3,4,4,6,6],"right_children":[2,4,6,8,10,-1,12,-1,-1,-1,-1,-1,-1],"split_conditions":[2.9674453E-1,1.4444239E0,-7.688889E-1,-3.627204E-2,1.5985036E0,-1.08189486E-1,4.0677965E-1,7.6026283E-3,4.3592606E-2,1.1761017E-1,4.1588467E-2,-4.768181E-2,-1.4269511E-2],"split_indices":[14,0,7,1,0,0,4,0,0,0,0,0,0],"split_type":[0,0,0,0,0,0,0,0,0,0,0,0,0],"sum_hessian":[3.6E1,1.9E1,1.7E1,1.4E1,5E0,3E0,1.4E1,5E0,9E0,3E0,2E0,1.2E1,2E0],"tree_param":{"num_deleted":"0","num_feature":"15","num_nodes":"13","size_leaf_vector":"1"}},{"base_weights":[-1.8247044E-1,8.289943E-1,-1.1276054E0,1.5480259E-1,5.9133112E-2,-1.8202654E0,-7.2117734E-1,8.897082E-3,3.9920807E-4,-9.895279E-2,-2.5657846E-2,-2.4028355E-2,-5.0502013E-2],"categories":[],"categories_nodes":[],"categories_segments":[],"categories_sizes":[],"default_left":[0,0,0,0,0,0,0,0,0,0,0,0,0],"id":40,"left_children":[1,3,5,7,-1,9,11,-1,-1,-1,-1,-1,-1],"loss_changes":[3.3437782E1,3.8704004E0,3.7545624E0,2.2359952E-2,0E0,2.2977257E-1,4.1815138E-1,0E0,0E0,0E0,0E0,0E0,0E0],"parents":[2147483647,0,0,1,1,2,2,3,3,5,5,6,6],"right_children":[2,4,6,8,-1,10,12,-1,-1,-1,-1,-1,-1],"split_conditions":[1.4155746E-1,-3.627204E-2,-1.0992593E0,1.6364168E-1,5.9133112E-2,-6.440678E-1,0E0,8.897082E-3,3.9920807E-4,-9.895279E-2,-2.5657846E-2,-2.4028355E-2,-5.0502013E-2],"split_indices":[14,1,2,3,0,4,12,0,0,0,0,0,0],"split_type":[0,0,0,0,0,0,0,0,0,0,0,0,0],"sum_hessian":[3.3E1,1.6E1,1.7E1,6E0,1E1,5E0,1.2E1,5E0,1E0,4E0,1E0,8E0,4E0],"tree_param":{"num_deleted":"0","num_feature":"15","num_nodes":"13","size_leaf_vector":"1"}},{"base_weights":[1.2568625E-2,9.6476126E-1,-1.0990211E0,5.9216624E-1,2.0386322E0,-7.982432E-1,-9.760914E-2,9.345293E-3,4.2857897E-2,1.2430739E-1,4.557864E-2,-1.1063385E-2,-4.3499406E-2],"categories":[],"categories_nodes":[],"categories_segments":[],"categories_sizes":[],"default_left":[0,0,0,0,0,0,0,0,0,0,0,0,0],"id":41,"left_children":[1,3,5,7,9,11,-1,-1,-1,-1,-1,-1,-1],"loss_changes":[4.1281296E1,7.1952896E0,3.0607014E0,1.6654334E0,2.55579E-1,4.2842484E-1,0E0,0E0,0E0,0E0,0E0,0E0,0E0],"parents":[2147483647,0,0,1,1,2,2,3,3,4,4,5,5],"right_children":[2,4,6,8,10,12,-1,-1,-1,-1,-1,-1,-1],"split_conditions":[2.9674453E-1,1.161958E0,1.1168431E0,5.5415615E-2,6.8610257E-1,-8.8135594E-1,-9.760914E-2,9.345293E-3,4.2857897E-2,1.2430739E-1,4.557864E-2,-1.1063385E-2,-4.3499406E-2],"split_indices":[14,11,14,1,3,4,0,0,0,0,0,0,0],"split_type":[0,0,0,0,0,0,0,0,0,0,0,0,0],"sum_hessian":[3.7E1,2E1,1.7E1,1.6E1,4E0,1.4E1,3E0,7E0,9E0,2E0,2E0,2E0,1.2E1],"tree_param":{"num_deleted":"0","num_feature":"15","num_nodes":"13","size_leaf_vector":"1"}},{"base_weights":[3.33521E-2,9.707816E-1,-1.0621686E0,1.2016386E-1,6.9350433E-1,-8.1070423E-1,-1.0246277E-1,9.507316E-3,4.555984E-2,-4.3852452E-2,-1.154302E-2],"categories":[],"categories_nodes":[],"categories_segments":[],"categories_sizes":[],"default_left":[0,0,0,0,0,0,0,0,0,0,0],"id":42,"left_children":[1,3,5,-1,7,9,-1,-1,-1,-1,-1],"loss_changes":[4.005612E1,6.6744843E0,2.8065681E0,0E0,1.9087067E0,4.1303825E-1,0E0,0E0,0E0,0E0,0E0],"parents":[2147483647,0,0,1,1,2,2,4,4,5,5],"right_children":[2,4,6,-1,8,10,-1,-1,-1,-1,-1],"split_conditions":[2.9674453E-1,1.5644445E-1,1.1477426E0,1.2016386E-1,5.5415615E-2,4.0677965E-1,-1.0246277E-1,9.507316E-3,4.555984E-2,-4.3852452E-2,-1.154302E-2],"split_indices":[14,7,14,0,1,4,0,0,0,0,0],"split_type":[0,0,0,0,0,0,0,0,0,0,0],"sum_hessian":[3.7E1,2E1,1.7E1,2E0,1.8E1,1.5E1,2E0,6E0,1.2E1,1.3E1,2E0],"tree_param":{"num_deleted":"0","num_feature":"15","num_nodes":"11","size_leaf_vector":"1"}},{"base_weights":[9.8517565E-3,8.819253E-1,-1.0081147E0,5.293229E-1,1.9043884E0,-7.2526294E-1,-9.0839006E-2,1.1499634E-2,4.1866016E-2,1.16158426E-1,4.2540614E-2,-4.0929254E-2,-1.3199043E-2],"categories":[],"categories_nodes":[],"categories_segments":[],"categories_sizes":[],"default_left":[0,0,0,0,0,0,0,0,0,0,0,0,0],"id":43,"left_children":[1,3,5,7,9,11,-1,-1,-1,-1,-1,-1,-1],"loss_changes":[3.4623264E1,6.5629463E0,2.7995415E0,1.3747029E0,2.2950363E-1,4.2962646E-1,0E0,0E0,0E0,0E0,0E0,0E0,0E0],"parents":[2147483647,0,0,1,1,2,2,3,3,4,4,5,5],"right_children":[2,4,6,8,10,12,-1,-1,-1,-1,-1,-1,-1],"split_conditions":[2.9674453E-1,1.4444239E0,1.1168431E0,1.1186441E0,3.3015874E-1,9.247447E-1,-9.0839006E-2,1.1499634E-2,4.1866016E-2,1.16158426E-1,4.2540614E-2,-4.0929254E-2,-1.3199043E-2],"split_indices":[14,0,14,4,2,14,0,0,0,0,0,0,0],"split_type":[0,0,0,0,0,0,0,0,0,0,0,0,0],"sum_hessian":[3.7E1,2E1,1.7E1,1.6E1,4E0,1.4E1,3E0,9E0,7E0,2E0,2E0,1.1E1,3E0],"tree_param":{"num_deleted":"0","num_feature":"15","num_nodes":"13","size_leaf_vector":"1"}},{"base_weights":[-3.052727E-2,8.8607585E-1,-9.4552374E-1,5.087265E-1,1.8409088E0,-7.1786946E-1,-9.601949E-2,2.7343116E-3,3.6513902E-2,1.1228651E-1,4.1122567E-2,-4.1868784E-2,-1.7960614E-2],"categories":[],"categories_nodes":[],"categories_segments":[],"categories_sizes":[],"default_left":[0,0,0,0,0,0,0,0,0,0,0,0,0],"id":44,"left_children":[1,3,5,7,9,11,-1,-1,-1,-1,-1,-1,-1],"loss_changes":[3.1869284E1,5.9092884E0,2.8381271E0,1.4689634E0,2.1446228E-1,4.2785454E-1,0E0,0E0,0E0,0E0,0E0,0E0,0E0],"parents":[2147483647,0,0,1,1,2,2,3,3,4,4,5,5],"right_children":[2,4,6,8,10,12,-1,-1,-1,-1,-1,-1,-1],"split_conditions":[2.9674453E-1,1.4444239E0,1.1477426E0,-7.9093195E-2,3.3015874E-1,1.1259259E-1,-9.601949E-2,2.7343116E-3,3.6513902E-2,1.1228651E-1,4.1122567E-2,-4.1868784E-2,-1.7960614E-2],"split_indices":[14,0,14,1,2,2,0,0,0,0,0,0,0],"split_type":[0,0,0,0,0,0,0,0,0,0,0,0,0],"sum_hessian":[3.6E1,1.8E1,1.8E1,1.4E1,4E0,1.6E1,2E0,5E0,9E0,2E0,2E0,1.1E1,5E0],"tree_param":{"num_deleted":"0","num_feature":"15","num_nodes":"13","size_leaf_vector":"1"}},{"base_weights":[-3.134753E-2,7.9461366E-1,-9.4734067E-1,1.0965385E-1,6.055852E-1,-7.1768713E-1,-9.281896E-2,5.4618074E-3,3.653313E-2,-4.1276775E-2,-1.5765687E-2],"categories":[],"categories_nodes":[],"categories_segments":[],"categories_sizes":[],"default_left":[0,0,0,0,0,0,0,0,0,0,0],"id":45,"left_children":[1,3,5,-1,7,9,-1,-1,-1,-1,-1],"loss_changes":[2.8746038E1,3.958891E0,2.4254494E0,0E0,1.0997434E0,4.3402195E-1,0E0,0E0,0E0,0E0,0E0],"parents":[2147483647,0,0,1,1,2,2,4,4,5,5],"right_children":[2,4,6,-1,8,10,-1,-1,-1,-1,-1],"split_conditions":[2.9674453E-1,-7.457627E-1,1.1477426E0,1.0965385E-1,-3.435488E-1,1.4608138E0,-9.281896E-2,5.4618074E-3,3.653313E-2,-4.1276775E-2,-1.5765687E-2],"split_indices":[14,4,14,0,10,6,0,0,0,0,0],"split_type":[0,0,0,0,0,0,0,0,0,0,0],"sum_hessian":[3.6E1,1.9E1,1.7E1,1E0,1.8E1,1.5E1,2E0,4E0,1.4E1,1.1E1,4E0],"tree_param":{"num_deleted":"0","num_feature":"15","num_nodes":"11","size_leaf_vector":"1"}},{"base_weights":[5.501515E-2,7.7579206E-1,-8.385925E-1,4.7815365E-1,9.606085E-2,-8.3005525E-2,-6.1838275E-1,5.768442E-3,3.4926433E-2,-1.8886143E-2,-4.1973114E-2],"categories":[],"categories_nodes":[],"categories_segments":[],"categories_sizes":[],"default_left":[0,0,0,0,0,0,0,0,0,0,0],"id":46,"left_children":[1,3,5,7,-1,-1,9,-1,-1,-1,-1],"loss_changes":[2.448197E1,6.240733E0,2.0488234E0,1.3584881E0,0E0,0E0,4.8098993E-1,0E0,0E0,0E0,0E0],"parents":[2147483647,0,0,1,1,2,2,3,3,6,6],"right_children":[2,4,6,8,-1,-1,10,-1,-1,-1,-1],"split_conditions":[2.9674453E-1,1.161958E0,-8.3466667E-1,5.5415615E-2,9.606085E-2,-8.3005525E-2,-5.591111E-1,5.768442E-3,3.4926433E-2,-1.8886143E-2,-4.1973114E-2],"split_indices":[14,11,7,1,0,0,7,0,0,0,0],"split_type":[0,0,0,0,0,0,0,0,0,0,0],"sum_hessian":[3.6E1,2E1,1.6E1,1.7E1,3E0,2E0,1.4E1,7E0,1E1,8E0,6E0],"tree_param":{"num_deleted":"0","num_feature":"15","num_nodes":"11","size_leaf_vector":"1"}},{"base_weights":[-3.8127262E-2,-1.0507787E0,4.4947052E-1,-1.2638364E0,-1.5435219E-2,1.5625496E-1,1.351944E0,-7.204372E-2,-2.147344E-2,-1.566949E-2,2.1662375E-2,1.0451088E-1,3.9312284E-2],"categories":[],"categories_nodes":[],"categories_segments":[],"categories_sizes":[],"default_left":[0,0,0,0,0,0,0,0,0,0,0,0,0],"id":47,"left_children":[1,3,5,7,-1,9,11,-1,-1,-1,-1,-1,-1],"loss_changes":[1.8247892E1,1.507103E0,6.404233E0,7.1062183E-1,0E0,2.737537E0,8.6241627E-1,0E0,0E0,0E0,0E0,0E0,0E0],"parents":[2147483647,0,0,1,1,2,2,3,3,5,5,6,6],"right_children":[2,4,6,8,-1,10,12,-1,-1,-1,-1,-1,-1],"split_conditions":[-2.1375662E-1,1.6139507E0,2.8783068E-1,1.0721699E0,-1.5435219E-2,0E0,3.3015874E-1,-7.204372E-2,-2.147344E-2,-1.566949E-2,2.1662375E-2,1.0451088E-1,3.9312284E-2],"split_indices":[2,6,2,5,0,7,2,0,0,0,0,0,0],"split_type":[0,0,0,0,0,0,0,0,0,0,0,0,0],"sum_hessian":[3.5E1,1.1E1,2.4E1,8E0,3E0,1.9E1,5E0,6E0,2E0,7E0,1.2E1,1E0,4E0],"tree_param":{"num_deleted":"0","num_feature":"15","num_nodes":"13","size_leaf_vector":"1"}},{"base_weights":[2.85245E-2,7.3990595E-1,-8.030052E-1,1.3832432E-1,1.0994697E0,-5.822859E-1,-8.5625336E-2,1.0433834E-3,1.399641E-2,9.9421434E-2,3.785373E-2,-8.891773E-3,-3.3097047E-2],"categories":[],"categories_nodes":[],"categories_segments":[],"categories_sizes":[],"default_left":[0,0,0,0,0,0,0,0,0,0,0,0,0],"id":48,"left_children":[1,3,5,7,9,11,-1,-1,-1,-1,-1,-1,-1],"loss_changes":[2.3072472E1,4.390362E0,2.6162329E0,1.4384942E-1,2.4514894E0,3.9774752E-1,0E0,0E0,0E0,0E0,0E0,0E0,0E0],"parents":[2147483647,0,0,1,1,2,2,3,3,4,4,5,5],"right_children":[2,4,6,8,10,12,-1,-1,-1,-1,-1,-1,-1],"split_conditions":[2.9674453E-1,6.9017634E-2,1.1477426E0,-7.9093195E-2,1.5644445E-1,-6.0143214E-1,-8.5625336E-2,1.0433834E-3,1.399641E-2,9.9421434E-2,3.785373E-2,-8.891773E-3,-3.3097047E-2],"split_indices":[14,1,14,1,7,3,0,0,0,0,0,0,0],"split_type":[0,0,0,0,0,0,0,0,0,0,0,0,0],"sum_hessian":[3.7E1,2E1,1.7E1,8E0,1.2E1,1.5E1,2E0,5E0,3E0,2E0,1E1,3E0,1.2E1],"tree_param":{"num_deleted":"0","num_feature":"15","num_nodes":"13","size_leaf_vector":"1"}},{"base_weights":[-1.8701766E-2,-7.743912E-1,6.245693E-1,-1.3324264E0,-5.0019366E-1,1.3100497E-1,1.2132585E0,-1.6052628E-2,-7.525034E-2,-3.0328369E-2,-1.04341125E-2,-2.4720002E-2,1.1640272E-2,9.610748E-2,3.680627E-2],"categories":[],"categories_nodes":[],"categories_segments":[],"categories_sizes":[],"default_left":[0,0,0,0,0,0,0,0,0,0,0,0,0,0,0],"id":49,"left_children":[1,3,5,7,9,11,13,-1,-1,-1,-1,-1,-1,-1,-1],"loss_changes":[1.7983734E1,1.9347315E0,5.6521783E0,3.8952923E-1,2.7653933E-1,8.790972E-1,1.6291752E0,0E0,0E0,0E0,0E0,0E0,0E0,0E0,0E0],"parents":[2147483647,0,0,1,1,2,2,3,3,4,4,5,5,6,6],"right_children":[2,4,6,8,10,12,14,-1,-1,-1,-1,-1,-1,-1,-1],"split_conditions":[-7.142405E-3,-8.431625E-1,3.726436E-1,-8.6498743E-1,1.0169491E-1,-7.324113E-1,1.5644445E-1,-1.6052628E-2,-7.525034E-2,-3.0328369E-2,-1.04341125E-2,-2.4720002E-2,1.1640272E-2,9.610748E-2,3.680627E-2],"split_indices":[13,10,3,1,4,6,7,0,0,0,0,0,0,0,0],"split_type":[0,0,0,0,0,0,0,0,0,0,0,0,0,0,0],"sum_hessian":[3.5E1,1.6E1,1.9E1,4E0,1.2E1,1.1E1,8E0,1E0,3E0,8E0,4E0,1E0,1E1,2E0,6E0],"tree_param":{"num_deleted":"0","num_feature":"15","num_nodes":"15","size_leaf_vector":"1"}},{"base_weights":[7.332655E-2,7.020845E-1,-8.11823E-1,4.2809206E-1,1.4932419E0,-1.2955933E0,-4.4037858E-1,8.14226E-3,3.228866E-2,9.2903905E-2,3.1532925E-2,-1.7961312E-2,-7.0551075E-2,-4.3200175E-3,-2.5903655E-2],"categories":[],"categories_nodes":[],"categories_segments":[],"categories_sizes":[],"default_left":[0,0,0,0,0,0,0,0,0,0,0,0,0,0,0],"id":50,"left_children":[1,3,5,7,9,11,13,-1,-1,-1,-1,-1,-1,-1,-1],"loss_changes":[2.0049038E1,3.9129486E0,2.124856E0,8.764057E-1,4.016962E-1,1.4162254E-1,2.3026013E-1,0E0,0E0,0E0,0E0,0E0,0E0,0E0,0E0],"parents":[2147483647,0,0,1,1,2,2,3,3,4,4,5,5,6,6],"right_children":[2,4,6,8,10,12,14,-1,-1,-1,-1,-1,-1,-1,-1],"split_conditions":[2.9674453E-1,1.161958E0,-1.0992593E0,2.2267002E-1,3.3015874E-1,-8.263627E-1,-6.7959696E-1,8.14226E-3,3.228866E-2,9.2903905E-2,3.1532925E-2,-1.7961312E-2,-7.0551075E-2,-4.3200175E-3,-2.5903655E-2],"split_indices":[14,11,2,1,2,3,1,0,0,0,0,0,0,0,0],"split_type":[0,0,0,0,0,0,0,0,0,0,0,0,0,0,0],"sum_hessian":[3.4E1,2E1,1.4E1,1.6E1,4E0,5E0,9E0,8E0,8E0,2E0,2E0,1E0,4E0,2E0,7E0],"tree_param":{"num_deleted":"0","num_feature":"15","num_nodes":"15","size_leaf_vector":"1"}},{"base_weights":[1.7105315E-2,6.33873E-1,-7.9347134E-1,3.0501455E-1,1.2480164E0,-7.33119E-2,-5.2542996E-1,-7.218679E-4,2.3309212E-2,8.980713E-2,3.347687E-2,-2.897495E-2,-7.6016746E-3],"categories":[],"categories_nodes":[],"categories_segments":[],"categories_sizes":[],"default_left":[0,0,0,0,0,0,0,0,0,0,0,0,0],"id":51,"left_children":[1,3,5,7,9,-1,11,-1,-1,-1,-1,-1,-1],"loss_changes":[1.850071E1,3.8606281E0,2.1148634E0,7.7901983E-1,1.0169725E0,0E0,1.7435622E-1,0E0,0E0,0E0,0E0,0E0,0E0],"parents":[2147483647,0,0,1,1,2,2,3,3,4,4,6,6],"right_children":[2,4,6,8,10,-1,12,-1,-1,-1,-1,-1,-1],"split_conditions":[4.5681712E-1,2.7386242E-1,-7.688889E-1,-7.9093195E-2,3.3015874E-1,-7.33119E-2,2.2179894E-1,-7.218679E-4,2.3309212E-2,8.980713E-2,3.347687E-2,-2.897495E-2,-7.6016746E-3],"split_indices":[14,2,7,1,2,0,2,0,0,0,0,0,0],"split_type":[0,0,0,0,0,0,0,0,0,0,0,0,0],"sum_hessian":[3.5E1,2E1,1.5E1,1.4E1,6E0,3E0,1.2E1,5E0,9E0,2E0,4E0,1E1,2E0],"tree_param":{"num_deleted":"0","num_feature":"15","num_nodes":"13","size_leaf_vector":"1"}},{"base_weights":[-2.87643E-2,5.484711E-1,-7.061727E-1,9.2442326E-2,3.8272256E-1,-4.9845886E-1,-7.546756E-2,2.9397754E-3,3.0648042E-2,-2.9280854E-2,-5.618477E-3],"categories":[],"categories_nodes":[],"categories_segments":[],"categories_sizes":[],"default_left":[0,0,0,0,0,0,0,0,0,0,0],"id":52,"left_children":[1,3,5,-1,7,9,-1,-1,-1,-1,-1],"loss_changes":[1.4464183E1,3.6031108E0,2.0837822E0,0E0,1.3809879E0,4.3895745E-1,0E0,0E0,0E0,0E0,0E0],"parents":[2147483647,0,0,1,1,2,2,4,4,5,5],"right_children":[2,4,6,-1,8,10,-1,-1,-1,-1,-1],"split_conditions":[4.5681712E-1,-7.457627E-1,1.1168431E0,9.2442326E-2,5.5415615E-2,9.247447E-1,-7.546756E-2,2.9397754E-3,3.0648042E-2,-2.9280854E-2,-5.618477E-3],"split_indices":[14,4,14,0,1,14,0,0,0,0,0],"split_type":[0,0,0,0,0,0,0,0,0,0,0],"sum_hessian":[3.5E1,1.9E1,1.6E1,1E0,1.8E1,1.4E1,2E0,8E0,1E1,1.1E1,3E0],"tree_param":{"num_deleted":"0","num_feature":"15","num_nodes":"11","size_leaf_vector":"1"}},{"base_weights":[2.0874826E-2,5.559949E-1,-6.7286146E-1,3.0252796E-1,1.3572769E0,-4.7076875E-1,-7.295189E-2,-1.2403216E-4,2.2761948E-2,8.476207E-2,2.8344346E-2,-2.7912313E-2,-9.208222E-3],"categories":[],"categories_nodes":[],"categories_segments":[],"categories_sizes":[],"default_left":[0,0,0,0,0,0,0,0,0,0,0,0,0],"id":53,"left_children":[1,3,5,7,9,11,-1,-1,-1,-1,-1,-1,-1],"loss_changes":[1.4480931E1,4.0575533E0,2.0140991E0,8.3953655E-1,3.7460804E-1,2.732625E-1,0E0,0E0,0E0,0E0,0E0,0E0,0E0],"parents":[2147483647,0,0,1,1,2,2,3,3,4,4,5,5],"right_children":[2,4,6,8,10,12,-1,-1,-1,-1,-1,-1,-1],"split_conditions":[4.5681712E-1,1.161958E0,1.1477426E0,-7.9093195E-2,3.3015874E-1,1.4608138E0,-7.295189E-2,-1.2403216E-4,2.2761948E-2,8.476207E-2,2.8344346E-2,-2.7912313E-2,-9.208222E-3],"split_indices":[14,11,14,1,2,6,0,0,0,0,0,0,0],"split_type":[0,0,0,0,0,0,0,0,0,0,0,0,0],"sum_hessian":[3.7E1,2.1E1,1.6E1,1.7E1,4E0,1.4E1,2E0,6E0,1.1E1,2E0,2E0,1E1,4E0],"tree_param":{"num_deleted":"0","num_feature":"15","num_nodes":"13","size_leaf_vector":"1"}},{"base_weights":[1.650219E-2,5.4299295E-1,-6.5715283E-1,3.12035E-1,1.3120346E0,-4.7484636E-1,-7.052015E-2,4.586619E-3,2.7331162E-2,8.193665E-2,2.7399573E-2,-2.7973143E-2,-8.8398745E-3],"categories":[],"categories_nodes":[],"categories_segments":[],"categories_sizes":[],"default_left":[0,0,0,0,0,0,0,0,0,0,0,0,0],"id":54,"left_children":[1,3,5,7,9,11,-1,-1,-1,-1,-1,-1,-1],"loss_changes":[1.4543756E1,3.6757731E0,1.8020778E0,9.317845E-1,3.5004616E-1,3.0460596E-1,0E0,0E0,0E0,0E0,0E0,0E0,0E0],"parents":[2147483647,0,0,1,1,2,2,3,3,4,4,5,5],"right_children":[2,4,6,8,10,12,-1,-1,-1,-1,-1,-1,-1],"split_conditions":[4.5681712E-1,1.161958E0,1.1477426E0,2.2267002E-1,3.3015874E-1,1.4608138E0,-7.052015E-2,4.586619E-3,2.7331162E-2,8.193665E-2,2.7399573E-2,-2.7973143E-2,-8.8398745E-3],"split_indices":[14,11,14,1,2,6,0,0,0,0,0,0,0],"split_type":[0,0,0,0,0,0,0,0,0,0,0,0,0],"sum_hessian":[3.9E1,2.2E1,1.7E1,1.8E1,4E0,1.5E1,2E0,1E1,8E0,2E0,2E0,1.1E1,4E0],"tree_param":{"num_deleted":"0","num_feature":"15","num_nodes":"13","size_leaf_vector":"1"}},{"base_weights":[-6.1520744E-2,4.7275823E-1,-6.92132E-1,8.596363E-2,3.079923E-1,-4.9885288E-1,-6.816953E-2,1.2135506E-3,2.4316788E-2,-9.648285E-3,-3.009556E-2],"categories":[],"categories_nodes":[],"categories_segments":[],"categories_sizes":[],"default_left":[0,0,0,0,0,0,0,0,0,0,0],"id":55,"left_children":[1,3,5,-1,7,9,-1,-1,-1,-1,-1],"loss_changes":[1.1782572E1,3.372756E0,1.3957138E0,0E0,8.9899325E-1,3.2519054E-1,0E0,0E0,0E0,0E0,0E0],"parents":[2147483647,0,0,1,1,2,2,4,4,5,5],"right_children":[2,4,6,-1,8,10,-1,-1,-1,-1,-1],"split_conditions":[4.5681712E-1,-7.457627E-1,1.1477426E0,8.596363E-2,5.5415615E-2,-6.0143214E-1,-6.816953E-2,1.2135506E-3,2.4316788E-2,-9.648285E-3,-3.009556E-2],"split_indices":[14,4,14,0,1,3,0,0,0,0,0],"split_type":[0,0,0,0,0,0,0,0,0,0,0],"sum_hessian":[3.3E1,1.8E1,1.5E1,1E0,1.7E1,1.3E1,2E0,7E0,1E1,4E0,9E0],"tree_param":{"num_deleted":"0","num_feature":"15","num_nodes":"11","size_leaf_vector":"1"}},{"base_weights":[2.7359458E-2,5.9332955E-1,-5.735124E-1,3.2123837E-1,1.2365189E0,-3.863917E-1,-6.589725E-2,3.6620002E-3,2.4904108E-2,7.73674E-2,2.5675837E-2,-1.4386604E-2,-3.425598E-2],"categories":[],"categories_nodes":[],"categories_segments":[],"categories_sizes":[],"default_left":[0,0,0,0,0,0,0,0,0,0,0,0,0],"id":56,"left_children":[1,3,5,7,9,11,-1,-1,-1,-1,-1,-1,-1],"loss_changes":[1.1902848E1,2.752893E0,1.8588352E0,5.77518E-1,3.290615E-1,2.4495482E-1,0E0,0E0,0E0,0E0,0E0,0E0,0E0],"parents":[2147483647,0,0,1,1,2,2,3,3,4,4,5,5],"right_children":[2,4,6,8,10,12,-1,-1,-1,-1,-1,-1,-1],"split_conditions":[2.9674453E-1,1.161958E0,1.1477426E0,2.2267002E-1,3.3015874E-1,0E0,-6.589725E-2,3.6620002E-3,2.4904108E-2,7.73674E-2,2.5675837E-2,-1.4386604E-2,-3.425598E-2],"split_indices":[14,11,14,1,2,0,0,0,0,0,0,0,0],"split_type":[0,0,0,0,0,0,0,0,0,0,0,0,0],"sum_hessian":[3.3E1,1.7E1,1.6E1,1.3E1,4E0,1.4E1,2E0,6E0,7E0,2E0,2E0,1.2E1,2E0],"tree_param":{"num_deleted":"0","num_feature":"15","num_nodes":"13","size_leaf_vector":"1"}},{"base_weights":[-2.5536185E-2,4.5052665E-1,-5.7952416E-1,8.188038E-2,3.0929223E-1,-4.130869E-1,-6.370074E-2,2.2402445E-3,2.409417E-2,-2.3805736E-2,-5.2487375E-3],"categories":[],"categories_nodes":[],"categories_segments":[],"categories_sizes":[],"default_left":[0,0,0,0,0,0,0,0,0,0,0],"id":57,"left_children":[1,3,5,-1,7,9,-1,-1,-1,-1,-1],"loss_changes":[1.02829485E1,3.0142908E0,1.554326E0,0E0,8.913729E-1,2.6073432E-1,0E0,0E0,0E0,0E0,0E0],"parents":[2147483647,0,0,1,1,2,2,4,4,5,5],"right_children":[2,4,6,-1,8,10,-1,-1,-1,-1,-1],"split_conditions":[4.5681712E-1,-7.457627E-1,1.1477426E0,8.188038E-2,5.5415615E-2,1.4730158E-1,-6.370074E-2,2.2402445E-3,2.409417E-2,-2.3805736E-2,-5.2487375E-3],"split_indices":[14,4,14,0,1,2,0,0,0,0,0],"split_type":[0,0,0,0,0,0,0,0,0,0,0],"sum_hessian":[3.7E1,2E1,1.7E1,1E0,1.9E1,1.5E1,2E0,8E0,1.1E1,1.2E1,3E0],"tree_param":{"num_deleted":"0","num_feature":"15","num_nodes":"11","size_leaf_vector":"1"}},{"base_weights":[4.9423218E-2,-4.05429E-1,5.015297E-1,-5.9800845E-2,-2.3185444E-1,1.1274511E-1,9.734173E-1,-1.658513E-2,7.5307847E-3,-1.33608505E-2,1.1343596E-2,7.302221E-2,2.8383384E-2],"categories":[],"categories_nodes":[],"categories_segments":[],"categories_sizes":[],"default_left":[0,0,0,0,0,0,0,0,0,0,0,0,0],"id":58,"left_children":[1,3,5,-1,7,9,11,-1,-1,-1,-1,-1,-1],"loss_changes":[7.400791E0,2.1927655E0,3.1925793E0,0E0,6.6098267E-1,5.3762656E-1,7.5184107E-1,0E0,0E0,0E0,0E0,0E0,0E0],"parents":[2147483647,0,0,1,1,2,2,4,4,5,5,6,6],"right_children":[2,4,6,-1,8,10,12,-1,-1,-1,-1,-1,-1],"split_conditions":[5.807766E-2,-8.3466667E-1,4.0333188E-1,-5.9800845E-2,4.0677965E-1,2.151111E-1,1.5644445E-1,-1.658513E-2,7.5307847E-3,-1.33608505E-2,1.1343596E-2,7.302221E-2,2.8383384E-2],"split_indices":[13,7,3,0,4,7,7,0,0,0,0,0,0],"split_type":[0,0,0,0,0,0,0,0,0,0,0,0,0],"sum_hessian":[3.4E1,1.7E1,1.7E1,2E0,1.5E1,1E1,7E0,1.2E1,3E0,2E0,8E0,2E0,5E0],"tree_param":{"num_deleted":"0","num_feature":"15","num_nodes":"13","size_leaf_vector":"1"}},{"base_weights":[8.785351E-3,4.68568E-1,-5.596982E-1,2.6389396E-1,6.362295E-2,-3.931071E-1,-6.0304385E-2,3.8682558E-3,2.2091335E-2,-2.4209803E-2,-5.7044984E-3],"categories":[],"categories_nodes":[],"categories_segments":[],"categories_sizes":[],"default_left":[0,0,0,0,0,0,0,0,0,0,0],"id":59,"left_children":[1,3,5,7,-1,9,-1,-1,-1,-1,-1],"loss_changes":[9.933275E0,3.1194534E0,1.3564854E0,5.6323063E-1,0E0,3.25989E-1,0E0,0E0,0E0,0E0,0E0],"parents":[2147483647,0,0,1,1,2,2,3,3,5,5],"right_children":[2,4,6,8,-1,10,-1,-1,-1,-1,-1],"split_conditions":[4.5681712E-1,1.161958E0,1.1477426E0,2.2267002E-1,6.362295E-2,1.4608138E0,-6.0304385E-2,3.8682558E-3,2.2091335E-2,-2.4209803E-2,-5.7044984E-3],"split_indices":[14,11,14,1,0,6,0,0,0,0,0],"split_type":[0,0,0,0,0,0,0,0,0,0,0],"sum_hessian":[3.6E1,2E1,1.6E1,1.7E1,3E0,1.4E1,2E0,9E0,8E0,1E1,4E0],"tree_param":{"num_deleted":"0","num_feature":"15","num_nodes":"11","size_leaf_vector":"1"}},{"base_weights":[-1.7375099E-2,4.1058204E-1,-5.779829E-1,1.9159788E-1,1.0730118E0,-4.107192E-1,-5.8294296E-2,3.5595364E-4,1.7739402E-2,6.846746E-2,2.095019E-2,-2.601223E-2,-5.4762266E-3],"categories":[],"categories_nodes":[],"categories_segments":[],"categories_sizes":[],"default_left":[0,0,0,0,0,0,0,0,0,0,0,0,0],"id":60,"left_children":[1,3,5,7,9,11,-1,-1,-1,-1,-1,-1,-1],"loss_changes":[8.8742895E0,2.8407075E0,1.0945053E0,5.0926137E-1,3.9527225E-1,4.0485883E-1,0E0,0E0,0E0,0E0,0E0,0E0,0E0],"parents":[2147483647,0,0,1,1,2,2,3,3,4,4,5,5],"right_children":[2,4,6,8,10,12,-1,-1,-1,-1,-1,-1,-1],"split_conditions":[5.550293E-1,5.3485316E-1,1.1477426E0,0E0,6.8610257E-1,1.4608138E0,-5.8294296E-2,3.5595364E-4,1.7739402E-2,6.846746E-2,2.095019E-2,-2.601223E-2,-5.4762266E-3],"split_indices":[14,3,14,1,3,6,0,0,0,0,0,0,0],"split_type":[0,0,0,0,0,0,0,0,0,0,0,0,0],"sum_hessian":[3.5E1,2E1,1.5E1,1.6E1,4E0,1.3E1,2E0,8E0,8E0,2E0,2E0,9E0,4E0],"tree_param":{"num_deleted":"0","num_feature":"15","num_nodes":"13","size_leaf_vector":"1"}},{"base_weights":[5.6313198E-2,4.5282856E-1,-4.6763277E-1,7.47057E-2,3.2605857E-1,-2.9293278E-1,-5.635109E-2,7.794539E-3,2.5836011E-2,-9.550826E-3,-3.0147681E-2],"categories":[],"categories_nodes":[],"categories_segments":[],"categories_sizes":[],"default_left":[0,0,0,0,0,0,0,0,0,0,0],"id":61,"left_children":[1,3,5,-1,7,9,-1,-1,-1,-1,-1],"loss_changes":[7.6908517E0,2.2849092E0,1.5129828E0,0E0,5.6833744E-1,3.2717216E-1,0E0,0E0,0E0,0E0,0E0],"parents":[2147483647,0,0,1,1,2,2,4,4,5,5],"right_children":[2,4,6,-1,8,10,-1,-1,-1,-1,-1],"split_conditions":[2.9674453E-1,-7.457627E-1,1.1168431E0,7.47057E-2,3.726436E-1,1.6333938E-1,-5.635109E-2,7.794539E-3,2.5836011E-2,-9.550826E-3,-3.0147681E-2],"split_indices":[14,4,14,0,3,0,0,0,0,0,0],"split_type":[0,0,0,0,0,0,0,0,0,0,0],"sum_hessian":[3.5E1,2E1,1.5E1,1E0,1.9E1,1.3E1,2E0,1.1E1,8E0,1.1E1,2E0],"tree_param":{"num_deleted":"0","num_feature":"15","num_nodes":"11","size_leaf_vector":"1"}},{"base_weights":[3.520672E-2,3.7906647E-1,-4.8278332E-1,7.283802E-2,2.688728E-1,-3.182978E-1,-5.4472733E-2,1.1198426E-3,2.1286093E-2,-1.1281713E-2,-2.9142633E-2],"categories":[],"categories_nodes":[],"categories_segments":[],"categories_sizes":[],"default_left":[0,0,0,0,0,0,0,0,0,0,0],"id":62,"left_children":[1,3,5,-1,7,9,-1,-1,-1,-1,-1],"loss_changes":[7.129528E0,2.458438E0,1.2498474E0,0E0,8.79634E-1,2.1169293E-1,0E0,0E0,0E0,0E0,0E0],"parents":[2147483647,0,0,1,1,2,2,4,4,5,5],"right_children":[2,4,6,-1,8,10,-1,-1,-1,-1,-1],"split_conditions":[5.550293E-1,-7.457627E-1,1.1477426E0,7.283802E-2,5.5415615E-2,0E0,-5.4472733E-2,1.1198426E-3,2.1286093E-2,-1.1281713E-2,-2.9142633E-2],"split_indices":[14,4,14,0,1,0,0,0,0,0,0],"split_type":[0,0,0,0,0,0,0,0,0,0,0],"sum_hessian":[3.8E1,2.3E1,1.5E1,1E0,2.2E1,1.3E1,2E0,9E0,1.3E1,1.1E1,2E0],"tree_param":{"num_deleted":"0","num_feature":"15","num_nodes":"11","size_leaf_vector":"1"}},{"base_weights":[2.1413967E-2,3.9655232E-1,-5.052073E-1,2.1268293E-1,5.6241322E-2,-2.960434E-1,-1.0063972E0,3.9617713E-3,1.8479396E-2,-2.4482919E-2,-4.3897904E-3,-5.6876373E-2,-1.5325165E-2],"categories":[],"categories_nodes":[],"categories_segments":[],"categories_sizes":[],"default_left":[0,0,0,0,0,0,0,0,0,0,0,0,0],"id":63,"left_children":[1,3,5,7,-1,9,11,-1,-1,-1,-1,-1,-1],"loss_changes":[7.1147957E0,2.572822E0,1.2745252E0,3.4761E-1,0E0,4.4084835E-1,1.8453121E-2,0E0,0E0,0E0,0E0,0E0,0E0],"parents":[2147483647,0,0,1,1,2,2,3,3,5,5,6,6],"right_children":[2,4,6,8,-1,10,12,-1,-1,-1,-1,-1,-1],"split_conditions":[4.5681712E-1,1.161958E0,-1.4440468E-1,1.1186441E0,5.6241322E-2,-1.0992593E0,3.7393978E-1,3.9617713E-3,1.8479396E-2,-2.4482919E-2,-4.3897904E-3,-5.6876373E-2,-1.5325165E-2],"split_indices":[14,11,13,4,0,2,0,0,0,0,0,0,0],"split_type":[0,0,0,0,0,0,0,0,0,0,0,0,0],"sum_hessian":[3.4E1,2E1,1.4E1,1.7E1,3E0,1.1E1,3E0,1E1,7E0,5E0,6E0,2E0,1E0],"tree_param":{"num_deleted":"0","num_feature":"15","num_nodes":"13","size_leaf_vector":"1"}},{"base_weights":[-3.7937164E-3,3.3519545E-1,-5.604335E-1,1.5984987E-1,9.344696E-1,-4.8577882E-2,-3.5998535E-1,2.983941E-4,1.35610765E-2,6.1066058E-2,1.6806412E-2,-2.111736E-2,-2.6452383E-3],"categories":[],"categories_nodes":[],"categories_segments":[],"categories_sizes":[],"default_left":[0,0,0,0,0,0,0,0,0,0,0,0,0],"id":64,"left_children":[1,3,5,7,9,-1,11,-1,-1,-1,-1,-1,-1],"loss_changes":[6.98087E0,2.2674665E0,8.0398035E-1,3.2400513E-1,4.4765568E-1,0E0,1.8830705E-1,0E0,0E0,0E0,0E0,0E0,0E0],"parents":[2147483647,0,0,1,1,2,2,3,3,4,4,6,6],"right_children":[2,4,6,8,10,-1,12,-1,-1,-1,-1,-1,-1],"split_conditions":[5.550293E-1,1.161958E0,-7.688889E-1,0E0,3.3015874E-1,-4.8577882E-2,1.6917218E0,2.983941E-4,1.35610765E-2,6.1066058E-2,1.6806412E-2,-2.111736E-2,-2.6452383E-3],"split_indices":[14,11,7,1,2,0,6,0,0,0,0,0,0],"split_type":[0,0,0,0,0,0,0,0,0,0,0,0,0],"sum_hessian":[3.5E1,2.2E1,1.3E1,1.8E1,4E0,3E0,1E1,8E0,1E1,2E0,2E0,8E0,2E0],"tree_param":{"num_deleted":"0","num_feature":"15","num_nodes":"13","size_leaf_vector":"1"}},{"base_weights":[-7.712493E-3,3.2231036E-1,-4.610119E-1,1.525891E-1,1.0479088E0,-4.9824398E-2,-3.133376E-1,2.851698E-4,1.2944828E-2,2.4471028E-2,6.808434E-2,-2.0184478E-2,-3.4983063E-3],"categories":[],"categories_nodes":[],"categories_segments":[],"categories_sizes":[],"default_left":[0,0,0,0,0,0,0,0,0,0,0,0,0],"id":65,"left_children":[1,3,5,7,9,-1,11,-1,-1,-1,-1,-1,-1],"loss_changes":[5.683758E0,2.5493891E0,9.5297956E-1,2.9520932E-1,3.452778E-2,0E0,2.7960277E-1,0E0,0E0,0E0,0E0,0E0,0E0],"parents":[2147483647,0,0,1,1,2,2,3,3,4,4,6,6],"right_children":[2,4,6,8,10,-1,12,-1,-1,-1,-1,-1,-1],"split_conditions":[5.550293E-1,1.161958E0,-8.3466667E-1,0E0,1.5335382E0,-4.9824398E-2,1.4283423E0,2.851698E-4,1.2944828E-2,2.4471028E-2,6.808434E-2,-2.0184478E-2,-3.4983063E-3],"split_indices":[14,11,7,1,0,0,6,0,0,0,0,0,0],"split_type":[0,0,0,0,0,0,0,0,0,0,0,0,0],"sum_hessian":[3.6E1,2.1E1,1.5E1,1.8E1,3E0,2E0,1.3E1,8E0,1E1,2E0,1E0,9E0,4E0],"tree_param":{"num_deleted":"0","num_feature":"15","num_nodes":"13","size_leaf_vector":"1"}},{"base_weights":[2.719578E-2,3.262183E-1,-4.0434885E-1,6.638222E-2,2.2035147E-1,-4.8163477E-2,-2.5569806E-1,1.9646327E-3,1.9891912E-2,-8.517996E-3,-2.5590897E-2],"categories":[],"categories_nodes":[],"categories_segments":[],"categories_sizes":[],"default_left":[0,0,0,0,0,0,0,0,0,0,0],"id":66,"left_children":[1,3,5,-1,7,-1,9,-1,-1,-1,-1],"loss_changes":[5.0354857E0,2.1458611E0,1.0830376E0,0E0,6.9134986E-1,0E0,2.1880186E-1,0E0,0E0,0E0,0E0],"parents":[2147483647,0,0,1,1,2,2,4,4,6,6],"right_children":[2,4,6,-1,8,-1,10,-1,-1,-1,-1],"split_conditions":[5.550293E-1,-7.457627E-1,-8.3466667E-1,6.638222E-2,2.2267002E-1,-4.8163477E-2,0E0,1.9646327E-3,1.9891912E-2,-8.517996E-3,-2.5590897E-2],"split_indices":[14,4,7,0,1,0,0,0,0,0,0],"split_type":[0,0,0,0,0,0,0,0,0,0,0],"sum_hessian":[3.7E1,2.2E1,1.5E1,1E0,2.1E1,2E0,1.3E1,1.1E1,1E1,1.1E1,2E0],"tree_param":{"num_deleted":"0","num_feature":"15","num_nodes":"11","size_leaf_vector":"1"}},{"base_weights":[3.346746E-2,2.9568136E-1,-4.1285354E-1,6.4722635E-2,1.8648021E-1,-2.2844419E-1,-4.7570165E-2,-9.911538E-4,1.4552389E-2,-5.7145017E-3,-2.473793E-2],"categories":[],"categories_nodes":[],"categories_segments":[],"categories_sizes":[],"default_left":[0,0,0,0,0,0,0,0,0,0,0],"id":67,"left_children":[1,3,5,-1,7,9,-1,-1,-1,-1,-1],"loss_changes":[4.101146E0,2.1580834E0,1.0737343E0,0E0,4.5879483E-1,2.7786392E-1,0E0,0E0,0E0,0E0,0E0],"parents":[2147483647,0,0,1,1,2,2,4,4,5,5],"right_children":[2,4,6,-1,8,10,-1,-1,-1,-1,-1],"split_conditions":[5.550293E-1,-7.457627E-1,1.1168431E0,6.4722635E-2,0E0,0E0,-4.7570165E-2,-9.911538E-4,1.4552389E-2,-5.7145017E-3,-2.473793E-2],"split_indices":[14,4,14,0,1,0,0,0,0,0,0],"split_type":[0,0,0,0,0,0,0,0,0,0,0],"sum_hessian":[3.3E1,2.1E1,1.2E1,1E0,2E1,1E1,2E0,7E0,1.3E1,8E0,2E0],"tree_param":{"num_deleted":"0","num_feature":"15","num_nodes":"11","size_leaf_vector":"1"}},{"base_weights":[3.190118E-3,3.0492678E-1,-4.1189718E-1,6.310463E-2,1.992478E-1,-2.736631E-1,-4.598452E-2,1.9554773E-3,1.8574448E-2,-1.7761879E-2,-2.7890778E-3],"categories":[],"categories_nodes":[],"categories_segments":[],"categories_sizes":[],"default_left":[0,0,0,0,0,0,0,0,0,0,0],"id":68,"left_children":[1,3,5,-1,7,9,-1,-1,-1,-1,-1],"loss_changes":[4.7597394E0,1.9738817E0,8.7142396E-1,0E0,5.647015E-1,2.2901428E-1,0E0,0E0,0E0,0E0,0E0],"parents":[2147483647,0,0,1,1,2,2,4,4,5,5],"right_children":[2,4,6,-1,8,10,-1,-1,-1,-1,-1],"split_conditions":[5.550293E-1,-7.457627E-1,1.1477426E0,6.310463E-2,2.2267002E-1,1.4608138E0,-4.598452E-2,1.9554773E-3,1.8574448E-2,-1.7761879E-2,-2.7890778E-3],"split_indices":[14,4,14,0,1,6,0,0,0,0,0],"split_type":[0,0,0,0,0,0,0,0,0,0,0],"sum_hessian":[3.6E1,2.1E1,1.5E1,1E0,2E1,1.3E1,2E0,1.1E1,9E0,9E0,4E0],"tree_param":{"num_deleted":"0","num_feature":"15","num_nodes":"11","size_leaf_vector":"1"}},{"base_weights":[1.2387727E-2,2.878156E-1,-3.8431406E-1,6.1527062E-2,1.8903074E-1,-4.4607546E-2,-2.4804088E-1,2.4272038E-3,1.7638016E-2,-4.5788903E-3,-1.769705E-2],"categories":[],"categories_nodes":[],"categories_segments":[],"categories_sizes":[],"default_left":[0,0,0,0,0,0,0,0,0,0,0],"id":69,"left_children":[1,3,5,-1,7,-1,9,-1,-1,-1,-1],"loss_changes":[4.262595E0,1.9093112E0,8.859825E-1,0E0,4.8891562E-1,0E0,1.9955921E-1,0E0,0E0,0E0,0E0],"parents":[2147483647,0,0,1,1,2,2,4,4,6,6],"right_children":[2,4,6,-1,8,-1,10,-1,-1,-1,-1],"split_conditions":[5.550293E-1,-7.457627E-1,-8.3466667E-1,6.1527062E-2,2.2267002E-1,-4.4607546E-2,-4.3957183E-1,2.4272038E-3,1.7638016E-2,-4.5788903E-3,-1.769705E-2],"split_indices":[14,4,7,0,1,0,0,0,0,0,0],"split_type":[0,0,0,0,0,0,0,0,0,0,0],"sum_hessian":[3.7E1,2.2E1,1.5E1,1E0,2.1E1,2E0,1.3E1,1.2E1,9E0,6E0,7E0],"tree_param":{"num_deleted":"0","num_feature":"15","num_nodes":"11","size_leaf_vector":"1"}},{"base_weights":[-1.3236587E-2,2.6529452E-1,-3.9538956E-1,1.068289E-1,7.827118E-1,-3.997898E-2,-2.406088E-1,-3.7956238E-4,8.23358E-3,5.2048236E-2,1.3177745E-2,-8.01832E-3,-2.27314E-2],"categories":[],"categories_nodes":[],"categories_segments":[],"categories_sizes":[],"default_left":[0,0,0,0,0,0,0,0,0,0,0,0,0],"id":70,"left_children":[1,3,5,7,9,-1,11,-1,-1,-1,-1,-1,-1],"loss_changes":[4.0432296E0,1.7202264E0,8.085878E-1,1.20380655E-1,3.960178E-1,0E0,1.5034735E-1,0E0,0E0,0E0,0E0,0E0,0E0],"parents":[2147483647,0,0,1,1,2,2,3,3,4,4,6,6],"right_children":[2,4,6,8,10,-1,12,-1,-1,-1,-1,-1,-1],"split_conditions":[5.550293E-1,1.4444239E0,-7.688889E-1,2.9832363E-1,3.3015874E-1,-3.997898E-2,0E0,-3.7956238E-4,8.23358E-3,5.2048236E-2,1.3177745E-2,-8.01832E-3,-2.27314E-2],"split_indices":[14,0,7,9,2,0,0,0,0,0,0,0,0],"split_type":[0,0,0,0,0,0,0,0,0,0,0,0,0],"sum_hessian":[3.6E1,2.1E1,1.5E1,1.7E1,4E0,3E0,1.2E1,6E0,1.1E1,2E0,2E0,1E1,2E0],"tree_param":{"num_deleted":"0","num_feature":"15","num_nodes":"13","size_leaf_vector":"1"}},{"base_weights":[-5.938881E-4,2.6339522E-1,-3.8004112E-1,5.8687784E-2,1.6866268E-1,-3.8479805E-2,-2.3094413E-1,2.1150443E-3,1.5803337E-2,-7.6538436E-3,-2.1973802E-2],"categories":[],"categories_nodes":[],"categories_segments":[],"categories_sizes":[],"default_left":[0,0,0,0,0,0,0,0,0,0,0],"id":71,"left_children":[1,3,5,-1,7,-1,9,-1,-1,-1,-1],"loss_changes":[3.9065588E0,1.7855687E0,7.515702E-1,0E0,3.9640743E-1,0E0,1.438179E-1,0E0,0E0,0E0,0E0],"parents":[2147483647,0,0,1,1,2,2,4,4,6,6],"right_children":[2,4,6,-1,8,-1,10,-1,-1,-1,-1],"split_conditions":[5.550293E-1,-7.457627E-1,-7.688889E-1,5.8687784E-2,2.2267002E-1,-3.8479805E-2,0E0,2.1150443E-3,1.5803337E-2,-7.6538436E-3,-2.1973802E-2],"split_indices":[14,4,7,0,1,0,0,0,0,0,0],"split_type":[0,0,0,0,0,0,0,0,0,0,0],"sum_hessian":[3.7E1,2.2E1,1.5E1,1E0,2.1E1,3E0,1.2E1,1.2E1,9E0,1E1,2E0],"tree_param":{"num_deleted":"0","num_feature":"15","num_nodes":"11","size_leaf_vector":"1"}},{"base_weights":[2.1937808E-2,2.9445538E-1,-3.1599203E-1,5.722065E-2,1.9473687E-1,-4.7881316E-2,-2.1603823E-1,3.6628086E-3,1.6753685E-2,-1.392162E-2,2.0376206E-3],"categories":[],"categories_nodes":[],"categories_segments":[],"categories_sizes":[],"default_left":[0,0,0,0,0,0,0,0,0,0,0],"id":72,"left_children":[1,3,5,-1,7,-1,9,-1,-1,-1,-1],"loss_changes":[3.5004427E0,1.5570275E0,8.8339055E-1,0E0,3.16418E-1,0E0,2.677027E-1,0E0,0E0,0E0,0E0],"parents":[2147483647,0,0,1,1,2,2,4,4,6,6],"right_children":[2,4,6,-1,8,-1,10,-1,-1,-1,-1],"split_conditions":[2.9674453E-1,-7.457627E-1,-9.830508E-1,5.722065E-2,1.7015873E-1,-4.7881316E-2,1.4608138E0,3.6628086E-3,1.6753685E-2,-1.392162E-2,2.0376206E-3],"split_indices":[14,4,4,0,2,0,6,0,0,0,0],"split_type":[0,0,0,0,0,0,0,0,0,0,0],"sum_hessian":[3.6E1,2E1,1.6E1,1E0,1.9E1,1E0,1.5E1,1.1E1,8E0,1.2E1,3E0],"tree_param":{"num_deleted":"0","num_feature":"15","num_nodes":"11","size_leaf_vector":"1"}},{"base_weights":[1.1149724E-2,2.449542E-1,-3.325068E-1,5.5790137E-2,1.5035175E-1,-4.6684265E-2,-2.2287369E-1,1.8326979E-3,1.48938075E-2,5.821228E-3,-1.2896465E-2],"categories":[],"categories_nodes":[],"categories_segments":[],"categories_sizes":[],"default_left":[0,0,0,0,0,0,0,0,0,0,0],"id":73,"left_children":[1,3,5,-1,7,-1,9,-1,-1,-1,-1],"loss_changes":[2.9739926E0,1.644694E0,7.8054214E-1,0E0,3.4131885E-1,0E0,1.965496E-1,0E0,0E0,0E0,0E0],"parents":[2147483647,0,0,1,1,2,2,4,4,6,6],"right_children":[2,4,6,-1,8,-1,10,-1,-1,-1,-1],"split_conditions":[5.550293E-1,-7.457627E-1,-9.830508E-1,5.5790137E-2,2.2267002E-1,-4.6684265E-2,-1.044817E0,1.8326979E-3,1.48938075E-2,5.821228E-3,-1.2896465E-2],"split_indices":[14,4,4,0,1,0,9,0,0,0,0],"split_type":[0,0,0,0,0,0,0,0,0,0,0],"sum_hessian":[3.5E1,2.1E1,1.4E1,1E0,2E1,1E0,1.3E1,1.2E1,8E0,1E0,1.2E1],"tree_param":{"num_deleted":"0","num_feature":"15","num_nodes":"11","size_leaf_vector":"1"}},{"base_weights":[2.1136116E-2,-3.7795317E-1,2.5600088E-1,-1.8718567E-1,-7.603836E-1,5.4395296E-2,1.645813E-1,-1.4881134E-2,-8.612061E-4,-4.4041064E-2,-9.976769E-3,2.8322493E-3,1.664486E-2],"categories":[],"categories_nodes":[],"categories_segments":[],"categories_sizes":[],"default_left":[0,0,0,0,0,0,0,0,0,0,0,0,0],"id":74,"left_children":[1,3,5,7,9,-1,11,-1,-1,-1,-1,-1,-1],"loss_changes":[3.2836444E0,8.0608594E-1,1.4941039E0,1.8257418E-1,9.443402E-2,0E0,3.6265838E-1,0E0,0E0,0E0,0E0,0E0,0E0],"parents":[2147483647,0,0,1,1,2,2,3,3,4,4,6,6],"right_children":[2,4,6,8,10,-1,12,-1,-1,-1,-1,-1,-1],"split_conditions":[-2.1375662E-1,-2.3289752E-1,-7.457627E-1,-1.0992593E0,3.7393978E-1,5.4395296E-2,2.418136E-1,-1.4881134E-2,-8.612061E-4,-4.4041064E-2,-9.976769E-3,2.8322493E-3,1.664486E-2],"split_indices":[2,0,4,2,0,0,1,0,0,0,0,0,0],"split_type":[0,0,0,0,0,0,0,0,0,0,0,0,0],"sum_hessian":[3.3E1,1.2E1,2.1E1,9E0,3E0,1E0,2E1,5E0,4E0,2E0,1E0,1.3E1,7E0],"tree_param":{"num_deleted":"0","num_feature":"15","num_nodes":"13","size_leaf_vector":"1"}},{"base_weights":[8.786653E-3,2.43858E-1,-2.9594016E-1,5.3035356E-2,1.5445055E-1,-4.4416048E-2,-2.0339632E-1,2.1086375E-3,1.3686943E-2,-1.3215288E-2,-8.267212E-4],"categories":[],"categories_nodes":[],"categories_segments":[],"categories_sizes":[],"default_left":[0,0,0,0,0,0,0,0,0,0,0],"id":75,"left_children":[1,3,5,-1,7,-1,9,-1,-1,-1,-1],"loss_changes":[2.794204E0,1.4428856E0,7.512791E-1,0E0,2.6971775E-1,0E0,1.7773628E-1,0E0,0E0,0E0,0E0],"parents":[2147483647,0,0,1,1,2,2,4,4,6,6],"right_children":[2,4,6,-1,8,-1,10,-1,-1,-1,-1],"split_conditions":[5.550293E-1,-7.457627E-1,-9.830508E-1,5.3035356E-2,2.2267002E-1,-4.4416048E-2,1.4608138E0,2.1086375E-3,1.3686943E-2,-1.3215288E-2,-8.267212E-4],"split_indices":[14,4,4,0,1,0,6,0,0,0,0],"split_type":[0,0,0,0,0,0,0,0,0,0,0],"sum_hessian":[3.7E1,2.1E1,1.6E1,1E0,2E1,1E0,1.5E1,1.1E1,9E0,1.1E1,4E0],"tree_param":{"num_deleted":"0","num_feature":"15","num_nodes":"11","size_leaf_vector":"1"}},{"base_weights":[2.0871343E-2,2.560737E-1,-2.709005E-1,4.4364803E-2,1.4292948E-1,-4.3305587E-2,-1.7956781E-1,-1.707077E-3,9.621226E-3,-1.175003E-2,2.2740364E-3],"categories":[],"categories_nodes":[],"categories_segments":[],"categories_sizes":[],"default_left":[0,0,0,0,0,0,0,0,0,0,0],"id":76,"left_children":[1,3,5,-1,7,-1,9,-1,-1,-1,-1],"loss_changes":[2.6085114E0,1.372982E0,7.686323E-1,0E0,1.7308825E-1,0E0,2.1028912E-1,0E0,0E0,0E0,0E0],"parents":[2147483647,0,0,1,1,2,2,4,4,6,6],"right_children":[2,4,6,-1,8,-1,10,-1,-1,-1,-1],"split_conditions":[2.9674453E-1,1.5644445E-1,-8.8533336E-1,4.4364803E-2,-7.9093195E-2,-4.3305587E-2,1.4608138E0,-1.707077E-3,9.621226E-3,-1.175003E-2,2.2740364E-3],"split_indices":[14,7,7,0,1,0,6,0,0,0,0],"split_type":[0,0,0,0,0,0,0,0,0,0,0],"sum_hessian":[3.6E1,2E1,1.6E1,2E0,1.8E1,1E0,1.5E1,4E0,1.4E1,1.2E1,3E0],"tree_param":{"num_deleted":"0","num_feature":"15","num_nodes":"11","size_leaf_vector":"1"}},{"base_weights":[-7.754432E-3,-1.0019453E-1,7.5681496E-1,-3.4467667E-1,5.5922735E-2,1.6720708E-2,5.0600436E-2,-8.3749015E-3,-3.507271E-2,-2.6885562E-3,6.378145E-3],"categories":[],"categories_nodes":[],"categories_segments":[],"categories_sizes":[],"default_left":[0,0,0,0,0,0,0,0,0,0,0],"id":77,"left_children":[1,3,5,7,9,-1,-1,-1,-1,-1,-1],"loss_changes":[2.6201959E0,1.2788154E0,9.274626E-2,7.042817E-1,1.7188737E-1,0E0,0E0,0E0,0E0,0E0,0E0],"parents":[2147483647,0,0,1,1,2,2,3,3,4,4],"right_children":[2,4,6,8,10,-1,-1,-1,-1,-1,-1],"split_conditions":[1.4444239E0,-2.1375662E-1,1.5335382E0,-2.3289752E-1,4.0369485E-2,1.6720708E-2,5.0600436E-2,-8.3749015E-3,-3.507271E-2,-2.6885562E-3,6.378145E-3],"split_indices":[0,2,0,0,9,0,0,0,0,0,0],"split_type":[0,0,0,0,0,0,0,0,0,0,0],"sum_hessian":[3.5E1,3.2E1,3E0,1.2E1,2E1,2E0,1E0,9E0,3E0,8E0,1.2E1],"tree_param":{"num_deleted":"0","num_feature":"15","num_nodes":"11","size_leaf_vector":"1"}},{"base_weights":[1.7674764E-4,-4.1955012E-1,1.777467E-1,-2.3930645E-1,-6.751499E-1,4.933548E-2,1.059198E-1,-1.4627762E-2,-5.645943E-3,-3.9525732E-2,-8.226395E-3,4.1241964E-4,1.1473951E-2],"categories":[],"categories_nodes":[],"categories_segments":[],"categories_sizes":[],"default_left":[0,0,0,0,0,0,0,0,0,0,0,0,0],"id":78,"left_children":[1,3,5,7,9,-1,11,-1,-1,-1,-1,-1,-1],"loss_changes":[2.7576852E0,3.4520495E-1,1.4062254E0,2.0804912E-2,1.0556936E-1,0E0,2.9981223E-1,0E0,0E0,0E0,0E0,0E0,0E0],"parents":[2147483647,0,0,1,1,2,2,3,3,4,4,6,6],"right_children":[2,4,6,8,10,-1,12,-1,-1,-1,-1,-1,-1],"split_conditions":[-2.1375662E-1,-2.3289752E-1,-7.457627E-1,-6.440678E-1,3.7393978E-1,4.933548E-2,1.7015873E-1,-1.4627762E-2,-5.645943E-3,-3.9525732E-2,-8.226395E-3,4.1241964E-4,1.1473951E-2],"split_indices":[2,0,4,4,0,0,2,0,0,0,0,0,0],"split_type":[0,0,0,0,0,0,0,0,0,0,0,0,0],"sum_hessian":[3.5E1,1E1,2.5E1,7E0,3E0,1E0,2.4E1,4E0,3E0,2E0,1E0,1.4E1,1E1],"tree_param":{"num_deleted":"0","num_feature":"15","num_nodes":"13","size_leaf_vector":"1"}},{"base_weights":[-5.450419E-2,-3.631382E-1,9.003859E-2,-1.9381544E-1,-6.5332985E-1,-1.8337795E-3,1.8205203E-1,-1.2357331E-2,-2.3854573E-4,-3.820814E-2,-8.020783E-3,-2.9277802E-3,7.730484E-3,4.708057E-3,1.5192262E-2],"categories":[],"categories_nodes":[],"categories_segments":[],"categories_sizes":[],"default_left":[0,0,0,0,0,0,0,0,0,0,0,0,0,0,0],"id":79,"left_children":[1,3,5,7,9,11,13,-1,-1,-1,-1,-1,-1,-1,-1],"loss_changes":[1.6832968E0,4.6300697E-1,2.2012463E-1,8.955857E-2,9.594071E-2,1.332859E-1,1.105482E-1,0E0,0E0,0E0,0E0,0E0,0E0,0E0,0E0],"parents":[2147483647,0,0,1,1,2,2,3,3,4,4,5,5,6,6],"right_children":[2,4,6,8,10,12,14,-1,-1,-1,-1,-1,-1,-1,-1],"split_conditions":[-2.1375662E-1,-2.3289752E-1,1.7015873E-1,1.6917218E0,3.7393978E-1,1.2542373E0,1.4962407E0,-1.2357331E-2,-2.3854573E-4,-3.820814E-2,-8.020783E-3,-2.9277802E-3,7.730484E-3,4.708057E-3,1.5192262E-2],"split_indices":[2,0,2,6,0,4,13,0,0,0,0,0,0,0,0],"split_type":[0,0,0,0,0,0,0,0,0,0,0,0,0,0,0],"sum_hessian":[3.6E1,1.1E1,2.5E1,8E0,3E0,1.3E1,1.2E1,6E0,2E0,2E0,1E0,1E1,3E0,8E0,4E0],"tree_param":{"num_deleted":"0","num_feature":"15","num_nodes":"15","size_leaf_vector":"1"}},{"base_weights":[2.5342993E-2,-6.1179653E-2,5.9132385E-1,-3.940213E-4,-3.344523E-2,4.7984507E-2,2.5930977E-1,-5.5009057E-3,6.1936444E-3,1.527443E-2,3.019333E-3],"categories":[],"categories_nodes":[],"categories_segments":[],"categories_sizes":[],"default_left":[0,0,0,0,0,0,0,0,0,0,0],"id":80,"left_children":[1,3,5,7,-1,-1,9,-1,-1,-1,-1],"loss_changes":[1.8480729E0,1.2187877E0,3.6265707E-1,4.3593034E-1,0E0,0E0,1.8296719E-2,0E0,0E0,0E0,0E0],"parents":[2147483647,0,0,1,1,2,2,3,3,6,6],"right_children":[2,4,6,8,-1,-1,10,-1,-1,-1,-1],"split_conditions":[1.161958E0,1.1477426E0,5.6253105E-1,4.0369485E-2,-3.344523E-2,4.7984507E-2,1.5335382E0,-5.5009057E-3,6.1936444E-3,1.527443E-2,3.019333E-3],"split_indices":[11,14,3,9,0,0,0,0,0,0,0],"split_type":[0,0,0,0,0,0,0,0,0,0,0],"sum_hessian":[3.6E1,3.2E1,4E0,3E1,2E0,1E0,3E0,1.6E1,1.4E1,2E0,1E0],"tree_param":{"num_deleted":"0","num_feature":"15","num_nodes":"11","size_leaf_vector":"1"}},{"base_weights":[-2.2194581E-2,1.8363038E-1,-2.9514822E-1,4.6784975E-2,9.480045E-2,-3.856659E-2,-2.0603998E-1,2.0252576E-4,9.759183E-3,2.5102615E-3,-1.1480655E-2],"categories":[],"categories_nodes":[],"categories_segments":[],"categories_sizes":[],"default_left":[0,0,0,0,0,0,0,0,0,0,0],"id":81,"left_children":[1,3,5,-1,7,-1,9,-1,-1,-1,-1],"loss_changes":[1.9643409E0,1.2474201E0,4.77553E-1,0E0,1.7229502E-1,0E0,9.609473E-2,0E0,0E0,0E0,0E0],"parents":[2147483647,0,0,1,1,2,2,4,4,6,6],"right_children":[2,4,6,-1,8,-1,10,-1,-1,-1,-1],"split_conditions":[5.550293E-1,-7.457627E-1,-9.830508E-1,4.6784975E-2,2.418136E-1,-3.856659E-2,-9.1944146E-1,2.0252576E-4,9.759183E-3,2.5102615E-3,-1.1480655E-2],"split_indices":[14,4,4,0,1,0,0,0,0,0,0],"split_type":[0,0,0,0,0,0,0,0,0,0,0],"sum_hessian":[3.3E1,1.9E1,1.4E1,1E0,1.8E1,1E0,1.3E1,1E1,8E0,1E0,1.2E1],"tree_param":{"num_deleted":"0","num_feature":"15","num_nodes":"11","size_leaf_vector":"1"}},{"base_weights":[1.2224146E-2,1.623362E-1,-3.1403732E-1,4.5615386E-2,9.584503E-2,-1.6413727E-1,-3.5451256E-2,7.4005127E-4,1.0796547E-2,2.44751E-3,-9.662628E-3],"categories":[],"categories_nodes":[],"categories_segments":[],"categories_sizes":[],"default_left":[0,0,0,0,0,0,0,0,0,0,0],"id":82,"left_children":[1,3,5,-1,7,9,-1,-1,-1,-1,-1],"loss_changes":[1.8630835E0,1.2090884E0,5.941267E-1,0E0,2.401101E-1,7.150081E-2,0E0,0E0,0E0,0E0,0E0],"parents":[2147483647,0,0,1,1,2,2,4,4,5,5],"right_children":[2,4,6,-1,8,10,-1,-1,-1,-1,-1],"split_conditions":[4.5715666E-1,-7.457627E-1,-2.3289752E-1,4.5615386E-2,2.418136E-1,-9.1944146E-1,-3.5451256E-2,7.4005127E-4,1.0796547E-2,2.44751E-3,-9.662628E-3],"split_indices":[5,4,0,0,1,0,0,0,0,0,0],"split_type":[0,0,0,0,0,0,0,0,0,0,0],"sum_hessian":[3.6E1,2.5E1,1.1E1,1E0,2.4E1,9E0,2E0,1.5E1,9E0,1E0,8E0],"tree_param":{"num_deleted":"0","num_feature":"15","num_nodes":"11","size_leaf_vector":"1"}},{"base_weights":[1.4477412E-2,-6.935716E-2,5.481232E-1,-3.671608E-2,-2.4218898E-2,4.4474985E-2,2.4040413E-1,4.4424604E-3,-5.540763E-3,1.4080174E-2,2.9201508E-3],"categories":[],"categories_nodes":[],"categories_segments":[],"categories_sizes":[],"default_left":[0,0,0,0,0,0,0,0,0,0,0],"id":83,"left_children":[1,3,5,-1,7,-1,9,-1,-1,-1,-1],"loss_changes":[1.6485829E0,9.4270635E-1,3.1140077E-1,0E0,3.1337574E-1,0E0,1.3546824E-2,0E0,0E0,0E0,0E0],"parents":[2147483647,0,0,1,1,2,2,4,4,6,6],"right_children":[2,4,6,-1,8,-1,10,-1,-1,-1,-1],"split_conditions":[1.161958E0,-9.830508E-1,-7.457627E-1,-3.671608E-2,0E0,4.4474985E-2,1.5335382E0,4.4424604E-3,-5.540763E-3,1.4080174E-2,2.9201508E-3],"split_indices":[11,4,4,0,14,0,0,0,0,0,0],"split_type":[0,0,0,0,0,0,0,0,0,0,0],"sum_hessian":[3.5E1,3.1E1,4E0,1E0,3E1,1E0,3E0,1.3E1,1.7E1,2E0,1E0],"tree_param":{"num_deleted":"0","num_feature":"15","num_nodes":"11","size_leaf_vector":"1"}},{"base_weights":[4.3137493E-3,-3.0866852E-1,1.293341E-1,-1.08569555E-1,-5.816746E-1,4.336319E-2,6.2451046E-2,7.3495866E-3,-8.783086E-3,-3.3565268E-2,-7.819558E-3,3.0658947E-4,8.716154E-3],"categories":[],"categories_nodes":[],"categories_segments":[],"categories_sizes":[],"default_left":[0,0,0,0,0,0,0,0,0,0,0,0,0],"id":84,"left_children":[1,3,5,7,9,-1,11,-1,-1,-1,-1,-1,-1],"loss_changes":[1.3703126E0,4.8313022E-1,1.1797132E0,1.4584395E-1,4.7487617E-2,0E0,1.501443E-1,0E0,0E0,0E0,0E0,0E0,0E0],"parents":[2147483647,0,0,1,1,2,2,3,3,4,4,6,6],"right_children":[2,4,6,8,10,-1,12,-1,-1,-1,-1,-1,-1],"split_conditions":[-2.1375662E-1,-2.3289752E-1,-7.457627E-1,-1.044817E0,3.7393978E-1,4.336319E-2,2.418136E-1,7.3495866E-3,-8.783086E-3,-3.3565268E-2,-7.819558E-3,3.0658947E-4,8.716154E-3],"split_indices":[2,0,4,9,0,0,1,0,0,0,0,0,0],"split_type":[0,0,0,0,0,0,0,0,0,0,0,0,0],"sum_hessian":[3.3E1,9E0,2.4E1,6E0,3E0,1E0,2.3E1,1E0,5E0,2E0,1E0,1.6E1,7E0],"tree_param":{"num_deleted":"0","num_feature":"15","num_nodes":"13","size_leaf_vector":"1"}},{"base_weights":[1.1972929E-2,-6.3205495E-2,5.2079165E-1,-5.9014386E-1,-1.1829853E-2,4.2279053E-2,2.28199E-1,-9.301567E-3,-3.4959223E-2,-3.7611169E-3,7.92656E-3,1.3320287E-2,2.83947E-3],"categories":[],"categories_nodes":[],"categories_segments":[],"categories_sizes":[],"default_left":[0,0,0,0,0,0,0,0,0,0,0,0,0],"id":85,"left_children":[1,3,5,7,9,-1,11,-1,-1,-1,-1,-1,-1],"loss_changes":[1.4865E0,9.1345966E-1,2.8219414E-1,2.1238327E-3,3.5751256E-1,0E0,1.1066988E-2,0E0,0E0,0E0,0E0,0E0,0E0],"parents":[2147483647,0,0,1,1,2,2,3,3,4,4,6,6],"right_children":[2,4,6,8,10,-1,12,-1,-1,-1,-1,-1,-1],"split_conditions":[1.161958E0,-8.3466667E-1,5.6253105E-1,-6.872847E-1,5.423729E-1,4.2279053E-2,1.5335382E0,-9.301567E-3,-3.4959223E-2,-3.7611169E-3,7.92656E-3,1.3320287E-2,2.83947E-3],"split_indices":[11,7,3,0,4,0,0,0,0,0,0,0,0],"split_type":[0,0,0,0,0,0,0,0,0,0,0,0,0],"sum_hessian":[3.7E1,3.3E1,4E0,2E0,3.1E1,1E0,3E0,1E0,1E0,2.3E1,8E0,2E0,1E0],"tree_param":{"num_deleted":"0","num_feature":"15","num_nodes":"13","size_leaf_vector":"1"}},{"base_weights":[1.1877989E-2,-5.9112985E-2,5.064392E-1,-1.053365E-2,-5.737813E-1,4.1222002E-2,2.2082901E-1,3.9344565E-3,-4.95684E-3,-8.948326E-3,-3.4085274E-2,1.2876256E-2,2.7685165E-3],"categories":[],"categories_nodes":[],"categories_segments":[],"categories_sizes":[],"default_left":[0,0,0,0,0,0,0,0,0,0,0,0,0],"id":86,"left_children":[1,3,5,7,9,-1,11,-1,-1,-1,-1,-1,-1],"loss_changes":[1.3992031E0,8.690346E-1,2.720611E-1,2.6867983E-1,5.827725E-3,0E0,1.0027513E-2,0E0,0E0,0E0,0E0,0E0,0E0],"parents":[2147483647,0,0,1,1,2,2,3,3,4,4,6,6],"right_children":[2,4,6,8,10,-1,12,-1,-1,-1,-1,-1,-1],"split_conditions":[1.161958E0,1.1477426E0,5.6253105E-1,0E0,-4.0023705E-1,4.1222002E-2,1.5335382E0,3.9344565E-3,-4.95684E-3,-8.948326E-3,-3.4085274E-2,1.2876256E-2,2.7685165E-3],"split_indices":[11,14,3,14,0,0,0,0,0,0,0,0,0],"split_type":[0,0,0,0,0,0,0,0,0,0,0,0,0],"sum_hessian":[3.8E1,3.4E1,4E0,3.2E1,2E0,1E0,3E0,1.6E1,1.6E1,1E0,1E0,2E0,1E0],"tree_param":{"num_deleted":"0","num_feature":"15","num_nodes":"13","size_leaf_vector":"1"}},{"base_weights":[4.5743375E-3,-6.9490835E-2,4.9248964E-1,-2.8118769E-2,-1.9550692E-2,4.019146E-2,2.1369743E-1,-4.122753E-3,4.3459577E-3,1.2446976E-2,2.69928E-3],"categories":[],"categories_nodes":[],"categories_segments":[],"categories_sizes":[],"default_left":[0,0,0,0,0,0,0,0,0,0,0],"id":87,"left_children":[1,3,5,-1,7,-1,9,-1,-1,-1,-1],"loss_changes":[1.3713121E0,8.012911E-1,2.6221895E-1,0E0,2.1478689E-1,0E0,9.075165E-3,0E0,0E0,0E0,0E0],"parents":[2147483647,0,0,1,1,2,2,4,4,6,6],"right_children":[2,4,6,-1,8,-1,10,-1,-1,-1,-1],"split_conditions":[1.161958E0,-8.3466667E-1,-7.457627E-1,-2.8118769E-2,2.8463906E-1,4.019146E-2,1.5335382E0,-4.122753E-3,4.3459577E-3,1.2446976E-2,2.69928E-3],"split_indices":[11,7,4,0,9,0,0,0,0,0,0],"split_type":[0,0,0,0,0,0,0,0,0,0,0],"sum_hessian":[3.6E1,3.2E1,4E0,2E0,3E1,1E0,3E0,1.9E1,1.1E1,2E0,1E0],"tree_param":{"num_deleted":"0","num_feature":"15","num_nodes":"11","size_leaf_vector":"1"}},{"base_weights":[-1.9140132E-2,-7.2609425E-2,5.5757904E-1,-2.2581227E-2,-5.4868823E-1,3.9186668E-2,2.6317597E-3,-3.0658876E-3,7.1292245E-3,-8.621598E-3,-3.253002E-2],"categories":[],"categories_nodes":[],"categories_segments":[],"categories_sizes":[],"default_left":[0,0,0,0,0,0,0,0,0,0,0],"id":88,"left_children":[1,3,5,7,9,-1,-1,-1,-1,-1,-1],"loss_changes":[1.0889356E0,7.4976563E-1,3.0133373E-1,2.0068131E-1,2.8510094E-3,0E0,0E0,0E0,0E0,0E0,0E0],"parents":[2147483647,0,0,1,1,2,2,3,3,4,4],"right_children":[2,4,6,8,10,-1,-1,-1,-1,-1,-1],"split_conditions":[1.161958E0,1.1477426E0,1.5985036E0,5.351111E-1,-4.0023705E-1,3.9186668E-2,2.6317597E-3,-3.0658876E-3,7.1292245E-3,-8.621598E-3,-3.253002E-2],"split_indices":[11,14,0,7,0,0,0,0,0,0,0],"split_type":[0,0,0,0,0,0,0,0,0,0,0],"sum_hessian":[3.3E1,3.1E1,2E0,2.9E1,2E0,1E0,1E0,2.4E1,5E0,1E0,1E0],"tree_param":{"num_deleted":"0","num_feature":"15","num_nodes":"11","size_leaf_vector":"1"}},{"base_weights":[1.3409865E-2,-6.0140435E-2,4.1570154E-1,-1.2249116E-2,-5.349706E-1,3.8207054E-2,1.9318542E-1,-3.4132958E-3,4.1066487E-3,-8.406067E-3,-3.171673E-2,2.5659562E-3,1.0791111E-2],"categories":[],"categories_nodes":[],"categories_segments":[],"categories_sizes":[],"default_left":[0,0,0,0,0,0,0,0,0,0,0,0,0],"id":89,"left_children":[1,3,5,7,9,-1,11,-1,-1,-1,-1,-1,-1],"loss_changes":[1.1493701E0,7.4387515E-1,3.1757963E-1,1.6950335E-1,2.7096272E-3,0E0,4.98119E-3,0E0,0E0,0E0,0E0,0E0,0E0],"parents":[2147483647,0,0,1,1,2,2,3,3,4,4,6,6],"right_children":[2,4,6,8,10,-1,12,-1,-1,-1,-1,-1,-1],"split_conditions":[2.8783068E-1,1.1168431E0,-7.457627E-1,3.7288135E-1,-8.5037786E-1,3.8207054E-2,9.622166E-2,-3.4132958E-3,4.1066487E-3,-8.406067E-3,-3.171673E-2,2.5659562E-3,1.0791111E-2],"split_indices":[2,14,4,4,1,0,1,0,0,0,0,0,0],"split_type":[0,0,0,0,0,0,0,0,0,0,0,0,0],"sum_hessian":[3.7E1,3.2E1,5E0,3E1,2E0,1E0,4E0,1.9E1,1.1E1,1E0,1E0,1E0,3E0],"tree_param":{"num_deleted":"0","num_feature":"15","num_nodes":"13","size_leaf_vector":"1"}},{"base_weights":[2.0027572E-2,-4.4579245E-2,4.4242707E-1,-3.0923843E-2,-7.317543E-3,3.7251856E-2,1.8051529E-1,-2.7755431E-3,7.210064E-3,1.036644E-2,2.5018693E-3],"categories":[],"categories_nodes":[],"categories_segments":[],"categories_sizes":[],"default_left":[0,0,0,0,0,0,0,0,0,0,0],"id":90,"left_children":[1,3,5,-1,7,-1,9,-1,-1,-1,-1],"loss_changes":[1.029449E0,7.011596E-1,2.6179498E-1,0E0,2.4167499E-1,0E0,3.620088E-3,0E0,0E0,0E0,0E0],"parents":[2147483647,0,0,1,1,2,2,4,4,6,6],"right_children":[2,4,6,-1,8,-1,10,-1,-1,-1,-1],"split_conditions":[1.161958E0,-9.830508E-1,-7.457627E-1,-3.0923843E-2,5.423729E-1,3.7251856E-2,1.5335382E0,-2.7755431E-3,7.210064E-3,1.036644E-2,2.5018693E-3],"split_indices":[11,4,4,0,4,0,0,0,0,0,0],"split_type":[0,0,0,0,0,0,0,0,0,0,0],"sum_hessian":[3.6E1,3.2E1,4E0,1E0,3.1E1,1E0,3E0,2.4E1,7E0,2E0,1E0],"tree_param":{"num_deleted":"0","num_feature":"15","num_nodes":"11","size_leaf_vector":"1"}},{"base_weights":[4.3901064E-2,-1.9842086E-2,4.3032837E-1,6.507826E-2,-1.035223E-1,3.6320496E-2,1.747055E-1,-7.016659E-4,6.4084376E-3,-7.8588165E-3,2.2975921E-3,1.0020829E-2,2.4393082E-3],"categories":[],"categories_nodes":[],"categories_segments":[],"categories_sizes":[],"default_left":[0,0,0,0,0,0,0,0,0,0,0,0,0],"id":91,"left_children":[1,3,5,7,9,-1,11,-1,-1,-1,-1,-1,-1],"loss_changes":[8.706619E-1,2.2702779E-1,2.515182E-1,8.165764E-2,1.3554078E-1,0E0,3.1725243E-3,0E0,0E0,0E0,0E0,0E0,0E0],"parents":[2147483647,0,0,1,1,2,2,3,3,4,4,6,6],"right_children":[2,4,6,8,10,-1,12,-1,-1,-1,-1,-1,-1],"split_conditions":[1.161958E0,0E0,5.6253105E-1,-2.5775245E-1,1.4608138E0,3.6320496E-2,1.5335382E0,-7.016659E-4,6.4084376E-3,-7.8588165E-3,2.2975921E-3,1.0020829E-2,2.4393082E-3],"split_indices":[11,14,3,3,6,0,0,0,0,0,0,0,0],"split_type":[0,0,0,0,0,0,0,0,0,0,0,0,0],"sum_hessian":[3.4E1,3E1,4E0,1.5E1,1.5E1,1E0,3E0,7E0,8E0,1.1E1,4E0,2E0,1E0],"tree_param":{"num_deleted":"0","num_feature":"15","num_nodes":"13","size_leaf_vector":"1"}},{"base_weights":[1.1797979E-2,-2.1184364E-1,1.1904031E-1,-7.521591E-2,-5.0045204E-1,4.874984E-2,4.1856843E-1,7.660866E-3,-5.881076E-3,-2.8779984E-2,-6.875229E-3,9.07657E-4,7.7633667E-3,3.541241E-2,8.454323E-3],"categories":[],"categories_nodes":[],"categories_segments":[],"categories_sizes":[],"default_left":[0,0,0,0,0,0,0,0,0,0,0,0,0,0,0],"id":92,"left_children":[1,3,5,7,9,11,13,-1,-1,-1,-1,-1,-1,-1,-1],"loss_changes":[9.6058804E-1,4.749729E-1,5.4805213E-1,1.1489017E-1,2.9950976E-2,7.214034E-2,2.4159408E-1,0E0,0E0,0E0,0E0,0E0,0E0,0E0,0E0],"parents":[2147483647,0,0,1,1,2,2,3,3,4,4,5,5,6,6],"right_children":[2,4,6,8,10,12,14,-1,-1,-1,-1,-1,-1,-1,-1],"split_conditions":[-2.1375662E-1,-2.3289752E-1,1.161958E0,-1.044817E0,3.7393978E-1,8.367859E-1,5.6253105E-1,7.660866E-3,-5.881076E-3,-2.8779984E-2,-6.875229E-3,9.07657E-4,7.7633667E-3,3.541241E-2,8.454323E-3],"split_indices":[2,0,11,9,0,12,3,0,0,0,0,0,0,0,0],"split_type":[0,0,0,0,0,0,0,0,0,0,0,0,0,0,0],"sum_hessian":[3.8E1,1.2E1,2.6E1,9E0,3E0,2.2E1,4E0,1E0,8E0,2E0,1E0,1.8E1,4E0,1E0,3E0],"tree_param":{"num_deleted":"0","num_feature":"15","num_nodes":"15","size_leaf_vector":"1"}},{"base_weights":[-2.8455523E-3,-6.670332E-2,4.0641326E-1,-2.1454621E-2,-4.9695587E-1,3.4527015E-2,1.6274643E-1,5.0871717E-5,-1.1202113E-2,-7.782936E-3,-2.9488755E-2,2.1669387E-3,9.405136E-3],"categories":[],"categories_nodes":[],"categories_segments":[],"categories_sizes":[],"default_left":[0,0,0,0,0,0,0,0,0,0,0,0,0],"id":93,"left_children":[1,3,5,7,9,-1,11,-1,-1,-1,-1,-1,-1],"loss_changes":[9.679459E-1,6.123258E-1,2.3377872E-1,1.3680476E-1,3.2331347E-3,0E0,3.9588064E-3,0E0,0E0,0E0,0E0,0E0,0E0],"parents":[2147483647,0,0,1,1,2,2,3,3,4,4,6,6],"right_children":[2,4,6,8,10,-1,12,-1,-1,-1,-1,-1,-1],"split_conditions":[1.161958E0,1.1477426E0,5.6253105E-1,3.602015E-1,-8.5037786E-1,3.4527015E-2,9.622166E-2,5.0871717E-5,-1.1202113E-2,-7.782936E-3,-2.9488755E-2,2.1669387E-3,9.405136E-3],"split_indices":[11,14,3,1,1,0,1,0,0,0,0,0,0],"split_type":[0,0,0,0,0,0,0,0,0,0,0,0,0],"sum_hessian":[3.5E1,3.1E1,4E0,2.9E1,2E0,1E0,3E0,2.7E1,2E0,1E0,1E0,1E0,2E0],"tree_param":{"num_deleted":"0","num_feature":"15","num_nodes":"13","size_leaf_vector":"1"}},{"base_weights":[-5.6692422E-3,-1.0878783E-1,2.0100403E-1,-4.856008E-1,-5.7153385E-2,3.366375E-2,1.0554186E-1,-7.668495E-3,-2.8751565E-2,-1.186062E-3,-1.091919E-2,-1.1270524E-3,5.9617474E-3],"categories":[],"categories_nodes":[],"categories_segments":[],"categories_sizes":[],"default_left":[0,0,0,0,0,0,0,0,0,0,0,0,0],"id":94,"left_children":[1,3,5,7,9,-1,11,-1,-1,-1,-1,-1,-1],"loss_changes":[8.317173E-1,4.78116E-1,5.150334E-1,9.421706E-4,1.24186344E-1,0E0,2.3733899E-2,0E0,0E0,0E0,0E0,0E0,0E0],"parents":[2147483647,0,0,1,1,2,2,3,3,4,4,6,6],"right_children":[2,4,6,8,10,-1,12,-1,-1,-1,-1,-1,-1],"split_conditions":[1.7015873E-1,-8.3466667E-1,-7.457627E-1,-6.872847E-1,5.894539E-1,3.366375E-2,1.2813094E-1,-7.668495E-3,-2.8751565E-2,-1.186062E-3,-1.091919E-2,-1.1270524E-3,5.9617474E-3],"split_indices":[2,7,4,0,12,0,3,0,0,0,0,0,0],"split_type":[0,0,0,0,0,0,0,0,0,0,0,0,0],"sum_hessian":[3.7E1,2.5E1,1.2E1,2E0,2.3E1,1E0,1.1E1,1E0,1E0,2E1,3E0,1E0,1E1],"tree_param":{"num_deleted":"0","num_feature":"15","num_nodes":"13","size_leaf_vector":"1"}},{"base_weights":[5.974598E-3,-1.0008592E-1,2.0251738E-1,-4.9107235E-2,-2.3727672E-2,3.282223E-2,1.17104165E-1,-8.042653E-4,-1.0509777E-2,2.2030831E-3,9.748841E-3],"categories":[],"categories_nodes":[],"categories_segments":[],"categories_sizes":[],"default_left":[0,0,0,0,0,0,0,0,0,0,0],"id":95,"left_children":[1,3,5,7,-1,-1,9,-1,-1,-1,-1],"loss_changes":[8.332408E-1,4.7303236E-1,4.659269E-1,1.2428567E-1,0E0,0E0,6.5353155E-2,0E0,0E0,0E0,0E0],"parents":[2147483647,0,0,1,1,2,2,3,3,6,6],"right_children":[2,4,6,8,-1,-1,10,-1,-1,-1,-1],"split_conditions":[1.7015873E-1,1.1477426E0,-7.457627E-1,5.2605146E-1,-2.3727672E-2,3.282223E-2,2.418136E-1,-8.042653E-4,-1.0509777E-2,2.2030831E-3,9.748841E-3],"split_indices":[2,14,4,12,0,0,1,0,0,0,0],"split_type":[0,0,0,0,0,0,0,0,0,0,0],"sum_hessian":[3.8E1,2.5E1,1.3E1,2.3E1,2E0,1E0,1.2E1,2E1,3E0,7E0,5E0],"tree_param":{"num_deleted":"0","num_feature":"15","num_nodes":"11","size_leaf_vector":"1"}},{"base_weights":[7.0543033E-3,-2.848576E-1,7.2742335E-2,-1.4940389E-1,-2.74395E-2,2.4609974E-2,3.914833E-1,-9.410572E-3,-2.3929595E-3,-1.7336331E-3,3.5619498E-3,3.2001685E-2,4.7644298E-3],"categories":[],"categories_nodes":[],"categories_segments":[],"categories_sizes":[],"default_left":[0,0,0,0,0,0,0,0,0,0,0,0,0],"id":96,"left_children":[1,3,5,7,-1,9,11,-1,-1,-1,-1,-1,-1],"loss_changes":[7.302007E-1,1.6826296E-1,4.6596003E-1,1.4636561E-2,0E0,7.98702E-2,2.334894E-1,0E0,0E0,0E0,0E0,0E0,0E0],"parents":[2147483647,0,0,1,1,2,2,3,3,5,5,6,6],"right_children":[2,4,6,8,-1,10,12,-1,-1,-1,-1,-1,-1],"split_conditions":[-1.0992593E0,-3.789029E-1,1.161958E0,-6.440678E-1,-2.74395E-2,4.0369485E-2,3.3015874E-1,-9.410572E-3,-2.3929595E-3,-1.7336331E-3,3.5619498E-3,3.2001685E-2,4.7644298E-3],"split_indices":[2,0,11,4,0,9,2,0,0,0,0,0,0],"split_type":[0,0,0,0,0,0,0,0,0,0,0,0,0],"sum_hessian":[3.6E1,6E0,3E1,5E0,1E0,2.7E1,3E0,3E0,2E0,1.2E1,1.5E1,1E0,2E0],"tree_param":{"num_deleted":"0","num_feature":"15","num_nodes":"13","size_leaf_vector":"1"}},{"base_weights":[1.8343396E-2,-2.265002E-2,5.939304E-2,7.4134828E-3,3.5939178E-1,1.5188353E-3,-1.0469056E-2,3.1201554E-2,6.86121E-3],"categories":[],"categories_nodes":[],"categories_segments":[],"categories_sizes":[],"default_left":[0,0,0,0,0,0,0,0,0],"id":97,"left_children":[1,-1,3,5,7,-1,-1,-1,-1],"loss_changes":[7.234509E-1,0E0,5.2752495E-1,1.5570939E-1,2.0833921E-1,0E0,0E0,0E0,0E0],"parents":[2147483647,0,0,2,2,3,3,4,4],"right_children":[2,-1,4,6,8,-1,-1,-1,-1],"split_conditions":[-8.3466667E-1,-2.265002E-2,1.161958E0,3.602015E-1,5.6253105E-1,1.5188353E-3,-1.0469056E-2,3.1201554E-2,6.86121E-3],"split_indices":[7,0,11,1,3,0,0,0,0],"split_type":[0,0,0,0,0,0,0,0,0],"sum_hessian":[3.5E1,2E0,3.3E1,2.9E1,4E0,2.7E1,2E0,1E0,3E0],"tree_param":{"num_deleted":"0","num_feature":"15","num_nodes":"9","size_leaf_vector":"1"}},{"base_weights":[-4.3391854E-2,-6.075541E-3,-4.3940735E-1,-4.846008E-2,1.12334356E-1,-6.7684175E-3,-2.6187135E-2,-6.290627E-4,-7.998976E-3,6.484713E-3,1.7191569E-3],"categories":[],"categories_nodes":[],"categories_segments":[],"categories_sizes":[],"default_left":[0,0,0,0,0,0,0,0,0,0,0],"id":98,"left_children":[1,3,5,7,9,-1,-1,-1,-1,-1,-1],"loss_changes":[5.145547E-1,1.7106247E-1,6.025493E-3,9.801692E-2,7.7197254E-3,0E0,0E0,0E0,0E0,0E0,0E0],"parents":[2147483647,0,0,1,1,2,2,3,3,4,4],"right_children":[2,4,6,8,10,-1,-1,-1,-1,-1,-1],"split_conditions":[1.1477426E0,2.2179894E-1,-4.0023705E-1,5.003139E-1,1.5335382E0,-6.7684175E-3,-2.6187135E-2,-6.290627E-4,-7.998976E-3,6.484713E-3,1.7191569E-3],"split_indices":[14,2,0,12,0,0,0,0,0,0,0],"split_type":[0,0,0,0,0,0,0,0,0,0,0],"sum_hessian":[3.4E1,3.2E1,2E0,2.4E1,8E0,1E0,1E0,1.9E1,5E0,6E0,2E0],"tree_param":{"num_deleted":"0","num_feature":"15","num_nodes":"11","size_leaf_vector":"1"}},{"base_weights":[8.043031E-3,-8.9701235E-2,1.9539407E-1,-4.289627E-1,-4.1549683E-2,3.0378534E-2,1.1041514E-1,-6.6396715E-3,-2.5532532E-2,-6.546021E-4,-1.1345164E-2,2.0538876E-3,8.645312E-3],"categories":[],"categories_nodes":[],"categories_segments":[],"categories_sizes":[],"default_left":[0,0,0,0,0,0,0,0,0,0,0,0,0],"id":99,"left_children":[1,3,5,7,9,-1,11,-1,-1,-1,-1,-1,-1],"loss_changes":[6.950892E-1,3.9057592E-1,3.8825724E-1,4.7692657E-3,1.1834808E-1,0E0,4.489304E-2,0E0,0E0,0E0,0E0,0E0,0E0],"parents":[2147483647,0,0,1,1,2,2,3,3,4,4,6,6],"right_children":[2,4,6,8,10,-1,12,-1,-1,-1,-1,-1,-1],"split_conditions":[1.7015873E-1,-8.3466667E-1,-7.457627E-1,-6.872847E-1,5.2605146E-1,3.0378534E-2,2.418136E-1,-6.6396715E-3,-2.5532532E-2,-6.546021E-4,-1.1345164E-2,2.0538876E-3,8.645312E-3],"split_indices":[2,7,4,0,12,0,1,0,0,0,0,0,0],"split_type":[0,0,0,0,0,0,0,0,0,0,0,0,0],"sum_hessian":[3.6E1,2.4E1,1.2E1,2E0,2.2E1,1E0,1.1E1,1E0,1E0,2E1,2E0,6E0,5E0],"tree_param":{"num_deleted":"0","num_feature":"15","num_nodes":"13","size_leaf_vector":"1"}},{"base_weights":[-2.9885031E-2,-2.0737042E-1,5.629863E-2,-7.84111E-2,-4.1344643E-1,-1.5288133E-3,1.19522095E-1,3.4719468E-3,-5.472619E-3,-2.3688126E-2,-5.8124545E-3,-2.0435334E-3,4.860401E-3,6.7729526E-3,1.5935263E-3],"categories":[],"categories_nodes":[],"categories_segments":[],"categories_sizes":[],"default_left":[0,0,0,0,0,0,0,0,0,0,0,0,0,0,0],"id":100,"left_children":[1,3,5,7,9,11,13,-1,-1,-1,-1,-1,-1,-1,-1],"loss_changes":[5.1645386E-1,2.5991082E-1,8.42719E-2,4.4315897E-2,1.6628683E-2,5.447133E-2,1.1048749E-2,0E0,0E0,0E0,0E0,0E0,0E0,0E0,0E0],"parents":[2147483647,0,0,1,1,2,2,3,3,4,4,5,5,6,6],"right_children":[2,4,6,8,10,12,14,-1,-1,-1,-1,-1,-1,-1,-1],"split_conditions":[-2.1375662E-1,-2.3289752E-1,1.7015873E-1,-9.1944146E-1,3.7393978E-1,1.2542373E0,1.5335382E0,3.4719468E-3,-5.472619E-3,-2.3688126E-2,-5.8124545E-3,-2.0435334E-3,4.860401E-3,6.7729526E-3,1.5935263E-3],"split_indices":[2,0,2,0,0,4,0,0,0,0,0,0,0,0,0],"split_type":[0,0,0,0,0,0,0,0,0,0,0,0,0,0,0],"sum_hessian":[3.2E1,1E1,2.2E1,7E0,3E0,1.2E1,1E1,1E0,6E0,2E0,1E0,9E0,3E0,8E0,2E0],"tree_param":{"num_deleted":"0","num_feature":"15","num_nodes":"15","size_leaf_vector":"1"}},{"base_weights":[2.6374605E-2,6.4100154E-2,-4.0997314E-1,1.7236328E-2,3.324631E-1,-6.4460756E-3,-2.430191E-2,1.9248963E-3,-9.347535E-3,2.9579163E-2,5.989361E-3],"categories":[],"categories_nodes":[],"categories_segments":[],"categories_sizes":[],"default_left":[0,0,0,0,0,0,0,0,0,0,0],"id":101,"left_children":[1,3,5,7,9,-1,-1,-1,-1,-1,-1],"loss_changes":[6.1889184E-1,4.2187098E-1,1.473844E-3,1.3743746E-1,2.0467901E-1,0E0,0E0,0E0,0E0,0E0,0E0],"parents":[2147483647,0,0,1,1,2,2,3,3,4,4],"right_children":[2,4,6,8,10,-1,-1,-1,-1,-1,-1],"split_conditions":[1.1168431E0,1.161958E0,-4.0023705E-1,3.602015E-1,5.6253105E-1,-6.4460756E-3,-2.430191E-2,1.9248963E-3,-9.347535E-3,2.9579163E-2,5.989361E-3],"split_indices":[14,11,0,1,3,0,0,0,0,0,0],"split_type":[0,0,0,0,0,0,0,0,0,0,0],